tree
version=v4
num_class=1
num_tree_per_iteration=1
label_index=0
max_feature_idx=5
objective=binary sigmoid:1
feature_names=枠番 馬番 着順 人気 target_place target
feature_infos=[1:8] [0:22] [-4:295.30000000000001] [1:999.89999999999998] [0:1] [0:1]
tree_sizes=1222 1029 810 921 1360 1031 701 708 701 810 1456 1026 917 588 928 1011 706 488 1152 600 1379 922 1358 489 809 914 1139 714 925 1033 1022 484 711 1270 712 597 601 823 489 709 822 484 922 820 708 1258 376 702 705 603 491 485 600 933 715 487 820 821 715 1040 827 717 933 1715 480 594 713 938 815 590 601 720 1378 823 712 826 816 590 1271 1036 599 707 713 1046 714 1043 1040 1372 601 604 810 719 924 827 1704 601 1268 826 705 1578 1147 917 1603 1382 1249 1825 934 1041 1042 822 827 1050 713 821 815 483 823 1393 1244 715 821 607 1382 1735 2282 493 1253 1595 836 828 930 941 376 377 487 491 823 603 1167 1260 708 1506 700 714 1391 595 491 1821 376 1394 601 1153 1157 710 604 822 719 493 1872 713 1609 1157 941 1639 1633 1937 944 1744 1297 830 1527 1154 2414 1286 492 717 487 1632 832 1057 821 833 594 835 829 487 1291 719 830 376 1177 1176 603 719 1612 1644 1050 826 1056 1532 719 946 1399 376 1060 943 1293 1639 814 934 1371 1042 1044 1387 1139 1272 1047 1051 717 1281 711 717 603 490 1055 1055 489 715 489 940 717 494 1176 833 718 720 828 1279 493 719 943 714 720 719 1173 607 608 720 608 949 495 833 1062 491 718 1068 946 836 727 494 1052 723 840 611 610 612 949 727 841 495 1069 497 839 840 837 501 821 725 721 730 494 495 1269 383 495 828 494 495 612 495 385 836 610 834 605 384 497 608 714 929 611 947 936 1067 846 1071 606 495 846 845 619 617 843 614 723 727 613 725 614 386 725 498 502 501 388 618 500 389 389 504 498 500 505 617 505 389 496 501 389 388 388 389 388 388 387 389 388 388 388 389 387 386 388 388 389

Tree=0
num_leaves=10
num_cat=0
split_feature=5 1 3 3 2 3 3 3 2
split_gain=1.69301e+06 2.32831e-10 1.16415e-10 1.45519e-11 3.63798e-12 1.81899e-12 1.81899e-12 1.81899e-12 1.77636e-15
threshold=1.0000000180025095e-35 9.5000000000000018 282.85000000000008 84.15000000000002 16.350000000000005 535.55000000000007 425.7000000000001 395.35000000000008 32.650000000000013
decision_type=2 10 10 8 10 10 10 10 10
left_child=3 -2 -3 -1 -5 6 7 -4 -6
right_child=1 2 5 4 8 -7 -8 -9 -10
leaf_value=-3.4368587983321977 -1.8590218235608535 -1.8590218235608535 -1.8590218235608527 -3.4368587983321977 -3.4368587983321977 -1.8590218235608569 -1.8590218235608549 -1.8590218235608564 -3.4368587983321972
leaf_weight=34402.951160483062 1164.8224592357874 580.12962514907122 8.9679731205105711 17479.023257188499 9.2848626300692523 0.82391272485256273 1.9647149592638022 0.98235747963190156 0.82391272485256273
leaf_count=1085645 36758 18307 283 551581 293 26 62 31 26
internal_value=-3.38517 -1.85902 -1.85902 -3.43686 -3.43686 -1.85902 -1.85902 -1.85902 -3.43686
internal_weight=53649.8 1757.69 592.869 51892.1 17489.1 12.739 11.915 9.95033 10.1088
internal_count=1693012 55467 18709 1637545 551900 402 376 314 319
is_linear=0
shrinkage=1


Tree=1
num_leaves=8
num_cat=0
split_feature=5 0 1 2 3 2 2
split_gain=408464 5.82077e-11 2.91038e-11 1.45519e-11 1.81899e-12 5.68434e-14 8.88178e-16
threshold=1.0000000180025095e-35 5.5000000000000009 15.500000000000002 6.6500000000000012 264.25000000000006 23.700000000000006 53.150000000000006
decision_type=2 10 10 10 10 10 8
left_child=3 -2 -3 -1 -4 -5 -7
right_child=1 2 4 5 -6 6 -8
leaf_value=-0.051608278321459859 0.37087280892009389 0.37087280892009389 0.37087280892009389 -0.051608278321459859 0.37087280892009389 -0.051608278321459859 -0.051608278321459804
leaf_weight=49014.482193946838 3785.1318366900086 2448.4207692816854 226.86762880533934 419.94108306616545 9.3313163518905622 5.5553353428840628 0.84537711739540089
leaf_count=1623424 32451 20991 1945 13909 80 184 28
internal_value=-0.00272043 0.370873 0.370873 -0.0516083 0.370873 -0.0516083 -0.0516083
internal_weight=55910.6 6469.75 2684.62 49440.8 236.199 426.342 6.40071
internal_count=1693012 55467 23016 1637545 2025 14121 212
is_linear=0
shrinkage=0.05


Tree=2
num_leaves=6
num_cat=0
split_feature=5 0 0 3 2
split_gain=295485 2.91038e-11 7.27596e-12 7.27596e-12 3.63798e-12
threshold=1.0000000180025095e-35 7.5000000000000009 5.5000000000000009 425.7000000000001 24.850000000000005
decision_type=2 10 10 10 10
left_child=2 -2 -1 -3 -4
right_child=1 3 4 -5 -6
leaf_value=-0.051527383568110686 0.27144451250294888 0.27144451250294888 -0.051527383568110686 0.27144451250294888 -0.051527383568110686
leaf_weight=30092.754490245134 7164.2810499072075 1166.0965883731842 17006.62459904328 4.6583755463361731 2.1572629921138278
leaf_count=1046213 47676 7760 591257 31 75
internal_value=-0.0029677 0.271445 -0.0515274 0.271445 -0.0515274
internal_weight=55436.6 8335.04 47101.5 1170.75 17008.8
internal_count=1693012 55467 1637545 7791 591332
is_linear=0
shrinkage=0.05


Tree=3
num_leaves=7
num_cat=0
split_feature=5 1 3 0 3 3
split_gain=234561 2.91038e-11 2.91038e-11 7.27596e-12 9.09495e-13 1.13687e-13
threshold=1.0000000180025095e-35 17.500000000000004 120.15000000000002 7.5000000000000009 9.4500000000000011 214.25000000000003
decision_type=2 10 10 10 8 10
left_child=3 2 -2 -1 -5 -3
right_child=1 5 -4 4 -6 -7
leaf_value=-0.051450673899229041 0.21880217768663185 0.21880217768663185 0.21880217768663185 -0.051450673899229041 -0.051450673899229041 0.21880217768663185
leaf_weight=39253.701990924776 8720.5278643220663 40.371997997164726 1013.5310763567686 1620.3259873762727 3995.4523463472724 4.2311264276504508
leaf_count=1432593 49465 229 5749 59135 145817 24
internal_value=-0.00309201 0.218802 0.218802 -0.0514507 -0.0514507 0.218802
internal_weight=54648.1 9778.66 9734.06 44869.5 5615.78 44.6031
internal_count=1693012 55467 55214 1637545 204952 253
is_linear=0
shrinkage=0.05


Tree=4
num_leaves=11
num_cat=0
split_feature=5 1 0 2 2 2 3 3 3 2
split_gain=195373 2.91038e-11 7.27596e-12 3.63798e-12 1.81899e-12 4.54747e-13 2.27374e-13 1.42109e-14 4.44089e-16 2.22045e-16
threshold=1.0000000180025095e-35 16.500000000000004 5.5000000000000009 2.9500000000000006 8.9500000000000011 30.600000000000005 282.85000000000008 6.2500000000000009 4.2500000000000009 38.900000000000013
decision_type=2 10 10 10 10 10 10 10 10 10
left_child=2 -2 3 -1 -4 -5 -3 8 -6 -7
right_child=1 6 4 5 7 9 -8 -9 -10 -11
leaf_value=-0.051377924181627371 0.18562928114377708 0.18562928114377708 -0.051377924181627371 -0.051377924181627371 -0.051377924181627344 -0.051377924181627371 0.18562928114377708 -0.051377924181627371 -0.051377924181627323 -0.051377924181627288
leaf_weight=25027.825143735856 10806.422650665045 105.28931193053722 15368.675752267241 2276.8679189532995 1.1223041005432599 0.91350333765149005 4.329653948545455 62.953430011868477 1.070103909820318 0.6525023840367794
leaf_count=958917 54910 535 588836 87236 43 35 22 2412 41 25
internal_value=-0.00316012 0.185629 -0.0513779 -0.0513779 -0.0513779 -0.0513779 0.185629 -0.0513779 -0.0513779 -0.0513779
internal_weight=53656.1 10916 42740.1 27306.3 15433.8 2278.43 109.619 65.1458 2.19241 1.56601
internal_count=1693012 55467 1637545 1046213 591332 87296 557 2496 84 60
is_linear=0
shrinkage=0.05


Tree=5
num_leaves=8
num_cat=0
split_feature=5 3 3 0 2 3 1
split_gain=167622 1.45519e-11 1.45519e-11 7.27596e-12 7.27596e-12 1.81899e-12 9.09495e-13
threshold=1.0000000180025095e-35 140.15000000000001 38.650000000000013 7.5000000000000009 28.350000000000005 152.15000000000001 18.500000000000004
decision_type=2 10 10 10 10 10 10
left_child=3 2 -2 4 -1 -3 -5
right_child=1 5 -4 6 -6 -7 -8
leaf_value=-0.05130891588147124 0.16265117151163219 0.16265117151163219 0.16265117151163219 -0.05130891588147124 -0.05130891588147124 0.16265117151163219 -0.05130891588147124
leaf_weight=35611.312180478126 7692.3547251522541 126.2542582899332 3153.1628419458866 5094.2803812492639 2.5605520140379658 837.5788399875164 0.77065157704055209
leaf_count=1432490 36130 593 14810 204921 103 3934 31
internal_value=-0.00319748 0.162651 0.162651 -0.0513089 -0.0513089 0.162651 -0.0513089
internal_weight=52518.3 11809.4 10845.5 40708.9 35613.9 963.833 5095.05
internal_count=1693012 55467 50940 1637545 1432593 4527 204952
is_linear=0
shrinkage=0.05


Tree=6
num_leaves=5
num_cat=0
split_feature=5 0 1 2
split_gain=146721 1.45519e-11 1.45519e-11 7.27596e-12
threshold=1.0000000180025095e-35 7.5000000000000009 5.5000000000000009 12.950000000000001
decision_type=2 10 10 10
left_child=3 2 -2 -1
right_child=1 -3 -4 -5
leaf_value=-0.051243450740125374 0.14574083957392925 0.14574083957392925 0.14574083957392925 -0.051243450740125374
leaf_weight=38732.563537359238 4677.872296333313 1755.8924195766449 6067.0804691314697 39.185026288032532
leaf_count=1635890 20756 7791 26920 1655
internal_value=-0.00321643 0.145741 0.145741 -0.0512435
internal_weight=51272.6 12500.8 10745 38771.7
internal_count=1693012 55467 47676 1637545
is_linear=0
shrinkage=0.05


Tree=7
num_leaves=5
num_cat=0
split_feature=5 0 0 1
split_gain=130287 1.45519e-11 7.27596e-12 1.81899e-12
threshold=1.0000000180025095e-35 5.5000000000000009 1.5000000000000002 18.500000000000004
decision_type=2 10 10 8
left_child=2 -2 3 -1
right_child=1 -3 -4 -5
leaf_value=-0.051181337950653584 0.13275661847042547 0.13275661847042547 -0.051181337950653584 -0.051181337950653584
leaf_weight=8726.8524479661137 7618.8331640213728 5403.6875320672989 28098.479246903211 99.123936720192432
leaf_count=387023 32451 23016 1246126 4396
internal_value=-0.00322376 0.132757 -0.0511813 -0.0511813
internal_weight=49947 13022.5 36924.5 8825.98
internal_count=1693012 55467 1637545 391419
is_linear=0
shrinkage=0.05


Tree=8
num_leaves=5
num_cat=0
split_feature=5 0 0 3
split_gain=116949 1.45519e-11 7.27596e-12 1.81899e-12
threshold=1.0000000180025095e-35 7.5000000000000009 6.5000000000000009 293.45000000000005
decision_type=2 10 10 10
left_child=2 -2 -1 -3
right_child=1 3 -4 -5
leaf_value=-0.051122393817905946 0.12246816782675718 0.12246816782675718 -0.051122393817905946 0.12246816782675718
leaf_weight=26482.082301266491 11517.829968452454 1855.6181724071503 8681.0218543745577 26.574404239654541
leaf_count=1233270 47676 7681 404275 110
internal_value=-0.00322355 0.122468 -0.0511224 0.122468
internal_weight=48563.1 13400 35163.1 1882.19
internal_count=1693012 55467 1637545 7791
is_linear=0
shrinkage=0.05


Tree=9
num_leaves=6
num_cat=0
split_feature=5 1 2 1 2
split_gain=105858 1.45519e-11 1.45519e-11 1.77636e-15 8.88178e-16
threshold=1.0000000180025095e-35 12.500000000000002 18.950000000000003 11.500000000000002 24.850000000000005
decision_type=2 10 10 10 8
left_child=2 -2 -1 4 -4
right_child=1 -3 3 -5 -6
leaf_value=-0.051066458997765567 0.11411505392199235 0.11411505392199235 -0.051066458997765574 -0.051066458997765546 -0.051066458997765567
leaf_weight=33475.326078210026 11500.070279538631 2154.5245656967163 3.9668377749621855 1.5744665395468471 3.0262473747134204
leaf_count=1637126 46715 8752 194 77 148
internal_value=-0.00321837 0.114115 -0.0510665 -0.0510665 -0.0510665
internal_weight=47138.5 13654.6 33483.9 8.56755 6.99309
internal_count=1693012 55467 1637545 419 342
is_linear=0
shrinkage=0.05


Tree=10
num_leaves=12
num_cat=0
split_feature=5 3 1 0 3 1 1 2 2 3 2
split_gain=96455.3 1.45519e-11 7.27596e-12 9.09495e-13 9.09495e-13 2.27374e-13 2.27374e-13 2.84217e-14 1.42109e-14 1.42109e-14 7.10543e-15
threshold=1.0000000180025095e-35 120.15000000000002 17.500000000000004 6.5000000000000009 535.55000000000007 16.500000000000004 9.5000000000000018 6.8500000000000005 0.8500000000000002 264.25000000000006 0.65000000000000002
decision_type=2 10 10 10 10 10 10 10 10 8 10
left_child=2 -2 -1 4 -3 6 -5 8 10 -7 -4
right_child=1 3 7 5 -6 9 -8 -9 -10 -11 -12
leaf_value=-0.051013366199384784 0.10720058926366112 0.10720058926366112 -0.051013366199384784 0.10720058926366112 0.10720058926366112 0.10720058926366111 0.10720058926366112 -0.051013366199384784 -0.051013366199384784 0.10720058926366112 -0.051013366199384784
leaf_weight=31759.930280614644 12359.982559204102 1034.8100733160973 42.211191564798355 24.638335078954697 7.7150342166423789 19.163149505853657 350.1630046069622 0.48675267025828262 68.904708001762629 7.7150342166423789 11.643123872578142
leaf_count=1631215 49664 4158 2168 99 31 77 1407 25 3539 31 598
internal_value=-0.00320988 0.107201 -0.0510134 0.107201 0.107201 0.107201 0.107201 -0.0510134 -0.0510134 0.107201 -0.0510134
internal_weight=45687.4 13804.2 31883.2 1444.2 1042.53 401.68 374.801 123.246 122.759 26.8782 53.8543
internal_count=1693012 55467 1637545 5803 4189 1614 1506 6330 6305 108 2766
is_linear=0
shrinkage=0.05


Tree=11
num_leaves=8
num_cat=0
split_feature=5 1 0 0 2 2 2
split_gain=88361.4 7.27596e-12 3.63798e-12 1.81899e-12 9.09495e-13 4.54747e-13 4.44089e-16
threshold=1.0000000180025095e-35 17.500000000000004 3.5000000000000004 2.5000000000000004 17.150000000000002 10.15 30.600000000000005
decision_type=2 10 8 10 10 10 10
left_child=2 -2 3 4 -1 -5 -6
right_child=1 -3 -4 5 6 -7 -8
leaf_value=-0.050962962501522192 0.10138589410650874 0.10138589410650874 -0.050962962501522192 -0.050962962501522192 -0.050962962501522185 -0.050962962501522192 -0.050962962501522074
leaf_weight=5307.9127067327499 13800.920670241117 63.238181069493294 22093.723181948066 2945.0462015122175 1.6869937703013413 8.7130447477102262 0.37076786160469044
leaf_count=286320 55214 253 1191782 158862 91 470 20
internal_value=-0.00319924 0.101386 -0.050963 -0.050963 -0.050963 -0.050963 -0.050963
internal_weight=44221.6 13864.2 30357.5 8263.73 5309.97 2953.76 2.05776
internal_count=1693012 55467 1637545 445763 286431 159332 111
is_linear=0
shrinkage=0.05


Tree=12
num_leaves=7
num_cat=0
split_feature=5 1 0 3 3 3
split_gain=81305.6 7.27596e-12 3.63798e-12 9.09495e-13 9.09495e-13 2.84217e-14
threshold=1.0000000180025095e-35 2.5000000000000004 7.5000000000000009 248.05000000000004 2.0500000000000003 293.45000000000005
decision_type=2 10 8 10 10 10
left_child=2 3 -1 4 -2 -5
right_child=1 -3 -4 5 -6 -7
leaf_value=-0.050915117524321457 0.096431482631770676 0.096431482631770676 -0.050915117524321457 0.096431482631770676 0.096431482631770676 0.096431482631770676
leaf_weight=20826.62835008651 22.469188123941422 11752.38401940465 8076.72536675632 15.229116395115851 2038.2050204873085 19.473296374082565
leaf_count=1179951 90 47074 457594 61 8164 78
internal_value=-0.00318723 0.0964315 -0.0509151 0.0964315 0.0964315 0.0964315
internal_weight=42751.1 13847.8 28903.4 2095.38 2060.67 34.7024
internal_count=1693012 55467 1637545 8393 8254 139
is_linear=0
shrinkage=0.05


Tree=13
num_leaves=4
num_cat=0
split_feature=5 3 3
split_gain=75090.1 7.27596e-12 4.54747e-13
threshold=1.0000000180025095e-35 176.75000000000003 395.35000000000008
decision_type=2 10 10
left_child=-1 -2 -3
right_child=1 2 -4
leaf_value=-0.050869698278327394 0.0921631351470001 0.0921631351470001 0.0921631351470001
leaf_weight=27517.651442699134 13034.070499658585 672.60132253170013 59.814361155033112
leaf_count=1637545 52516 2710 241
internal_value=-0.00317439 0.0921631 0.0921631
internal_weight=41284.1 13766.5 732.416
internal_count=1693012 55467 2951
is_linear=0
shrinkage=0.05


Tree=14
num_leaves=7
num_cat=0
split_feature=5 1 1 2 2 2
split_gain=69566.5 3.63798e-12 2.27374e-13 1.13687e-13 1.13687e-13 2.22045e-16
threshold=1.0000000180025095e-35 14.500000000000002 15.500000000000002 9.8500000000000032 9.0500000000000025 9.8500000000000032
decision_type=2 10 10 10 10 8
left_child=1 -1 3 -3 -4 -6
right_child=-2 2 4 -5 5 -7
leaf_value=-0.050826559103315842 0.088450941193563504 -0.050826559103315842 -0.050826559103315842 -0.050826559103315842 -0.050826559103315849 -0.050826559103315808
leaf_weight=24608.554311398417 13630.341362893581 761.3713331669569 824.57897599227726 1.2318371292203654 0.44794077426195034 1.0718582812696693
leaf_count=1538238 55467 47592 51543 77 28 67
internal_value=-0.00316112 -0.0508266 -0.0508266 -0.0508266 -0.0508266 -0.0508266
internal_weight=39827.6 26197.3 1588.7 762.603 826.099 1.5198
internal_count=1693012 1637545 99307 47669 51638 95
is_linear=0
shrinkage=0.05


Tree=15
num_leaves=8
num_cat=0
split_feature=5 0 0 1 3 3 3
split_gain=64621.2 7.27596e-12 1.81899e-12 9.09495e-13 9.09495e-13 2.27374e-13 7.10543e-15
threshold=1.0000000180025095e-35 6.5000000000000009 7.5000000000000009 9.5000000000000018 350.85000000000008 162.05000000000004 395.35000000000008
decision_type=2 10 10 10 10 10 10
left_child=-1 -2 3 5 -4 -3 -6
right_child=1 2 4 -5 6 -7 -8
leaf_value=-0.050785598961687141 0.085195989464461927 0.085195989464461927 0.085195989464461927 0.085195989464461927 0.085195989464461927 0.085195989464461927 0.085195989464461927
leaf_weight=24939.19119768776 9652.721723690629 450.23244269192219 1873.907673433423 1447.1930266171694 4.8490300774574271 8.97070564329624 10.182963162660597
leaf_count=1637545 39813 1857 7729 5969 20 37 42
internal_value=-0.00314769 0.085196 0.085196 0.085196 0.085196 0.085196 0.085196
internal_weight=38387.2 13448.1 3795.34 1906.4 1888.94 459.203 15.032
internal_count=1693012 55467 15654 7863 7791 1894 62
is_linear=0
shrinkage=0.05


Tree=16
num_leaves=5
num_cat=0
split_feature=5 2 0 2
split_gain=60165.4 7.27596e-12 3.55271e-15 8.88178e-16
threshold=1.0000000180025095e-35 13.050000000000002 6.5000000000000009 16.350000000000005
decision_type=2 10 10 10
left_child=1 -1 -3 -4
right_child=-2 2 3 -5
leaf_value=-0.050746696040336159 0.082321618630216489 -0.050746696040336152 -0.050746696040336159 -0.050746696040336152
leaf_weight=23717.394312627614 13227.26194216311 16.07793810218573 4.0593531727790824 3.0880079492926598
leaf_count=1635943 55467 1109 280 213
internal_value=-0.0031343 -0.0507467 -0.0507467 -0.0507467
internal_weight=36967.9 23740.6 23.2253 7.14736
internal_count=1693012 1637545 1602 493
is_linear=0
shrinkage=0.05


Tree=17
num_leaves=3
num_cat=0
split_feature=5 2
split_gain=56128.5 3.63798e-12
threshold=1.0000000180025095e-35 15.950000000000001
decision_type=2 10
left_child=1 -1
right_child=-2 -3
leaf_value=-0.050709750621065121 0.079767419016267466 -0.050709750621065121
leaf_weight=22588.00891982764 12974.624531686306 10.805731672793625
leaf_count=1636762 55467 783
internal_value=-0.00312109 -0.0507098
internal_weight=35573.4 22598.8
internal_count=1693012 1637545
is_linear=0
shrinkage=0.05


Tree=18
num_leaves=9
num_cat=0
split_feature=5 3 0 3 1 2 3 0
split_gain=52453.8 7.27596e-12 3.63798e-12 3.63798e-12 4.54747e-13 2.27374e-13 2.27374e-13 1.13687e-13
threshold=1.0000000180025095e-35 225.95000000000002 7.5000000000000009 3.6500000000000008 14.500000000000002 6.7500000000000009 3.4500000000000006 2.5000000000000004
decision_type=2 10 10 8 10 8 10 10
left_child=2 -2 3 6 5 -4 -1 -3
right_child=1 7 4 -5 -6 -7 -8 -9
leaf_value=-0.05067465820437124 0.077485183461933116 0.077485183461933116 -0.05067465820437124 -0.05067465820437124 -0.05067465820437124 -0.05067465820437124 -0.05067465820437124 0.077485183461933116
leaf_weight=1227.9748186469078 12320.131872221828 81.027899354696274 1498.3709853887558 17448.565855398774 1156.1984556913376 37.72725373506546 142.33105648308992 294.8133739233017
leaf_count=93480 53825 354 114064 1328278 88016 2872 10835 1288
internal_value=-0.00310816 0.0774852 -0.0506747 -0.0506747 -0.0506747 -0.0506747 -0.0506747 0.0774852
internal_weight=34207.1 12696 21511.2 18818.9 2692.3 1536.1 1370.31 375.841
internal_count=1693012 55467 1637545 1432593 204952 116936 104315 1642
is_linear=0
shrinkage=0.05


Tree=19
num_leaves=4
num_cat=0
split_feature=5 3 1
split_gain=49094.9 7.27596e-12 3.63798e-12
threshold=1.0000000180025095e-35 37.45000000000001 14.500000000000002
decision_type=2 10 8
left_child=2 -2 -1
right_child=1 -3 -4
leaf_value=-0.050641318374377353 0.075435912203421454 0.075435912203421454 -0.050641318374377353
leaf_weight=19178.527874173597 7969.7070607542992 4426.6962353438139 1296.659549116157
leaf_count=1533842 35660 19807 103703
internal_value=-0.00309558 0.0754359 -0.0506413
internal_weight=32871.6 12396.4 20475.2
internal_count=1693012 55467 1637545
is_linear=0
shrinkage=0.05


Tree=20
num_leaves=11
num_cat=0
split_feature=5 0 1 2 1 3 2 1 2 2
split_gain=46013.4 3.63798e-12 3.63798e-12 3.63798e-12 9.09495e-13 2.27374e-13 2.84217e-14 1.42109e-14 1.77636e-15 1.11022e-16
threshold=1.0000000180025095e-35 1.0000000180025095e-35 1.5000000000000002 14.950000000000001 14.500000000000002 214.25000000000003 15.450000000000001 16.500000000000004 38.900000000000013 53.150000000000006
decision_type=2 10 10 8 8 10 10 10 10 10
left_child=1 4 5 -3 -1 -2 -5 -6 -8 -10
right_child=2 3 -4 6 7 -7 8 -9 9 -11
leaf_value=-0.050609650213923413 0.073587716378447146 -0.050609650213923413 0.073587716378447146 -0.050609650213923413 -0.050609650213923413 0.073587716378447146 -0.05060965021392342 -0.050609650213923413 -0.050609650213923107 -0.050609650213923253
leaf_weight=2892.130014100112 884.67784032225609 16316.247542543337 11173.685849308968 155.09428777545691 108.64454827364534 21.997159495949745 9.8064528182148898 5.9267154168337575 0.29752587433904487 0.33322897925972939
leaf_count=243015 4062 1370994 51304 13032 9129 101 824 498 25 28
internal_value=-0.00308339 -0.0506097 0.0735877 -0.0506097 -0.0506097 0.0735877 -0.0506097 -0.0506097 -0.0506097 -0.0506097
internal_weight=31568.8 19488.5 12080.4 16481.8 3006.7 906.675 165.531 114.571 10.4372 0.630755
internal_count=1693012 1637545 55467 1384903 252642 4163 13909 9627 877 53
is_linear=0
shrinkage=0.05


Tree=21
num_leaves=7
num_cat=0
split_feature=5 0 2 3 3 1
split_gain=43177.3 7.27596e-12 7.27596e-12 9.09495e-13 1.13687e-13 8.88178e-16
threshold=1.0000000180025095e-35 6.5000000000000009 19.450000000000006 105.45000000000002 467.30000000000001 1.5000000000000002
decision_type=2 10 10 10 10 10
left_child=2 -2 -1 -3 -5 -4
right_child=1 3 5 4 -6 -7
leaf_value=-0.050579565902142368 0.071914278466066656 0.071914278466066656 -0.050579565902142368 0.071914278466066656 0.071914278466066656 -0.050579565902142354
leaf_weight=18544.471053583547 8435.130466863513 2912.1359422057867 0.2718522772192945 397.04203388094902 7.4154061824083319 4.0211482672020793
leaf_count=1637166 39813 13745 24 1874 35 355
internal_value=-0.00307162 0.0719143 -0.0505796 0.0719143 0.0719143 -0.0505796
internal_weight=30300.5 11751.7 18548.8 3316.59 404.457 4.293
internal_count=1693012 55467 1637545 15654 1909 379
is_linear=0
shrinkage=0.05


Tree=22
num_leaves=11
num_cat=0
split_feature=5 1 1 2 3 2 3 3 3 3
split_gain=40559.7 3.63798e-12 3.63798e-12 3.63798e-12 9.09495e-13 1.13687e-13 5.68434e-14 2.84217e-14 3.55271e-15 3.55271e-15
threshold=1.0000000180025095e-35 16.500000000000004 11.500000000000002 -1.0000000180025095e-35 219.95000000000002 -0.6499999999999998 198.15000000000001 425.7000000000001 273.35000000000008 467.30000000000001
decision_type=2 10 10 8 10 10 10 10 10 10
left_child=3 2 -2 5 -4 -1 -3 -6 -8 -9
right_child=1 6 4 -5 7 -7 8 9 -10 -11
leaf_value=-0.050550978811424507 0.070393663782178942 0.070393663782178942 0.070393663782178942 -0.050550978811424507 0.070393663782178942 -0.050550978811424507 0.070393663782178942 0.070393663782178956 0.070393663782178928 0.070393663782178928
leaf_weight=126.37118546664715 8996.5960383415222 103.09457033872604 2200.173944234848 16732.700645178556 89.924804866313934 794.78441444784403 6.3791051506996137 5.1444396376609784 5.1444396376609802 7.4079930782318115
leaf_count=11722 43720 501 10692 1552100 437 73723 31 25 25 36
internal_value=-0.0030603 0.0703937 0.0703937 -0.050551 0.0703937 -0.050551 0.0703937 0.0703937 0.0703937 0.0703937
internal_weight=29067.7 11413.9 11299.2 17653.9 2302.65 921.156 114.618 102.477 11.5235 12.5524
internal_count=1693012 55467 54910 1637545 11190 85445 557 498 56 61
is_linear=0
shrinkage=0.05


Tree=23
num_leaves=3
num_cat=0
split_feature=5 2
split_gain=38137.6 3.63798e-12
threshold=1.0000000180025095e-35 26.200000000000006
decision_type=2 10
left_child=1 -1
right_child=-2 -3
leaf_value=-0.050523818427886641 0.069007438671669932 -0.050523818427886641
leaf_weight=16800.066922055557 11069.715330585837 1.6006034240126599
leaf_count=1637389 55467 156
internal_value=-0.00304943 -0.0505238
internal_weight=27871.4 16801.7
internal_count=1693012 1637545
is_linear=0
shrinkage=0.05


Tree=24
num_leaves=6
num_cat=0
split_feature=5 0 3 1 3
split_gain=35891.4 3.63798e-12 3.63798e-12 1.81899e-12 9.09495e-13
threshold=1.0000000180025095e-35 6.5000000000000009 78.750000000000014 6.5000000000000009 425.7000000000001
decision_type=2 10 10 10 10
left_child=2 3 -1 -2 -5
right_child=1 -3 -4 4 -6
leaf_value=-0.050498010884507116 0.067740014003802446 0.067740014003802446 -0.050498010884507116 0.067740014003802446 0.067740014003802446
leaf_weight=12951.767164274119 4799.656607657671 3025.9293006956577 3038.4359229393303 2884.0465801954269 12.177944675087927
leaf_count=1326381 24830 15654 311164 14920 63
internal_value=-0.003039 0.06774 -0.050498 0.06774 0.06774
internal_weight=26712 10721.8 15990.2 7695.88 2896.22
internal_count=1693012 55467 1637545 39813 14983
is_linear=0
shrinkage=0.05


Tree=25
num_leaves=7
num_cat=0
split_feature=5 1 3 3 3 3
split_gain=33804 3.63798e-12 3.63798e-12 1.13687e-13 1.13687e-13 2.84217e-14
threshold=1.0000000180025095e-35 16.500000000000004 3.3500000000000001 3.0500000000000003 2.5500000000000003 41.95000000000001
decision_type=2 10 10 10 10 10
left_child=-1 2 3 4 -2 -3
right_child=1 5 -4 -5 -6 -7
leaf_value=-0.050473487961336452 0.066578107108165585 0.066578107108165585 0.066578107108165585 0.066578107108165585 0.066578107108165585 0.066578107108165585
leaf_weight=15217.555051930249 213.7412117421627 54.791054278612137 9825.9247340261936 82.654081881046295 145.86014449596405 49.368048906326294
leaf_count=1637545 1143 293 52545 442 780 264
internal_value=-0.00302902 0.0665781 0.0665781 0.0665781 0.0665781 0.0665781
internal_weight=25589.9 10372.3 10268.2 442.255 359.601 104.159
internal_count=1693012 55467 54910 2365 1923 557
is_linear=0
shrinkage=0.05


Tree=26
num_leaves=9
num_cat=0
split_feature=5 1 0 1 2 1 3 1
split_gain=31860.7 3.63798e-12 1.81899e-12 9.09495e-13 9.09495e-13 2.84217e-14 2.84217e-14 8.88178e-16
threshold=1.0000000180025095e-35 16.500000000000004 3.5000000000000004 10.500000000000002 16.150000000000002 16.500000000000004 248.05000000000004 17.500000000000004
decision_type=2 10 10 10 10 10 10 8
left_child=2 -2 3 4 -1 -5 -3 -7
right_child=1 6 -4 5 -6 7 -8 -9
leaf_value=-0.0504501824803682 0.065510309530834421 0.065510309530834421 -0.0504501824803682 -0.0504501824803682 -0.0504501824803682 -0.0504501824803682 0.065510309530834421 -0.050450182480368172
leaf_weight=5951.8503385707736 9922.5334218144417 93.78610172867775 8305.4421825706959 218.18212842196226 2.0251999273896208 2.5823509991168967 6.866805136203765 1.8217955678701399
leaf_count=673007 54910 519 939140 24671 229 292 38 206
internal_value=-0.00301948 0.0655103 -0.0504502 -0.0504502 -0.0504502 -0.0504502 0.0655103 -0.0504502
internal_weight=24505.1 10023.2 14481.9 6176.46 5953.88 222.586 100.653 4.40415
internal_count=1693012 55467 1637545 698405 673236 25169 557 498
is_linear=0
shrinkage=0.05


Tree=27
num_leaves=5
num_cat=0
split_feature=5 0 2 2
split_gain=30048.6 1.81899e-12 1.81899e-12 4.44089e-16
threshold=1.0000000180025095e-35 1.0000000180025095e-35 19.450000000000006 19.850000000000005
decision_type=2 10 10 10
left_child=1 -1 -3 -4
right_child=-2 2 3 -5
leaf_value=-0.050428033123640872 0.06452678961081959 -0.050428033123640872 -0.050428033123640761 -0.050428033123640859
leaf_weight=2126.2246742974967 9675.9633125513792 11652.097002703696 0.19356705341488067 2.9960813485085964
leaf_count=252642 55467 1384524 23 356
internal_value=-0.00301037 -0.050428 -0.050428 -0.050428
internal_weight=23457.5 13781.5 11655.3 3.18965
internal_count=1693012 1637545 1384903 379
is_linear=0
shrinkage=0.05


Tree=28
num_leaves=7
num_cat=0
split_feature=5 0 1 1 2 3
split_gain=28356.3 1.81899e-12 1.81899e-12 1.81899e-12 4.54747e-13 2.84217e-14
threshold=1.0000000180025095e-35 6.5000000000000009 16.500000000000004 3.5000000000000004 13.250000000000002 148.95000000000002
decision_type=2 10 10 10 10 10
left_child=1 -1 3 -2 -3 -4
right_child=2 4 5 -5 -6 -7
leaf_value=-0.050406978529069883 0.063619021166661821 -0.050406978529069883 0.063619021166661821 0.063619021166661821 -0.050406978529069883 0.063619021166661821
leaf_weight=9876.9719786569476 2100.0333788096905 3234.0041521787643 79.075123220682144 7138.2964425683022 3.7400941513478747 14.637310042977331
leaf_count=1233270 12482 403808 470 42428 467 87
internal_value=-0.00300167 -0.050407 0.063619 0.063619 -0.050407 0.063619
internal_weight=22446.8 13114.7 9332.04 9238.33 3237.74 93.7124
internal_count=1693012 1637545 55467 54910 404275 557
is_linear=0
shrinkage=0.05


Tree=29
num_leaves=8
num_cat=0
split_feature=5 0 0 2 2 2 2
split_gain=26773.8 1.81899e-12 1.81899e-12 1.81899e-12 3.55271e-15 4.44089e-16 1.11022e-16
threshold=1.0000000180025095e-35 6.5000000000000009 3.5000000000000004 10.550000000000002 18.450000000000003 20.650000000000002 18.950000000000003
decision_type=2 10 10 10 8 10 10
left_child=1 3 -2 -1 -5 6 -6
right_child=2 -3 -4 4 5 -7 -8
leaf_value=-0.050386976554231744 0.0627795812875344 -0.050386976554231744 0.0627795812875344 -0.050386976554231744 -0.050386976554230835 -0.050386976554231716 -0.050386976554231661
leaf_weight=9381.7395806619897 2959.5906302332878 3081.0294967028312 6032.9929625988007 14.708767370320855 0.22101256670430602 1.6080569508485494 0.62493208516389132
leaf_count=1231018 18255 404275 37212 1930 29 211 82
internal_value=-0.00299338 -0.050387 0.0627796 -0.050387 -0.050387 -0.050387 -0.050387
internal_weight=21472.5 12479.9 8992.58 9398.9 17.1628 2.454 0.845945
internal_count=1693012 1637545 55467 1233270 2252 322 111
is_linear=0
shrinkage=0.05


Tree=30
num_leaves=8
num_cat=0
split_feature=5 1 2 3 3 3 2
split_gain=25292.1 1.81899e-12 1.81899e-12 1.13687e-13 3.55271e-15 8.88178e-16 2.22045e-16
threshold=1.0000000180025095e-35 1.5000000000000002 17.850000000000005 248.05000000000004 317.65000000000003 113.45000000000002 18.950000000000003
decision_type=2 10 10 10 10 10 8
left_child=2 3 -1 -2 -5 -4 -7
right_child=1 -3 5 4 -6 6 -8
leaf_value=-0.050367961525063766 0.062001946946379366 0.062001946946379366 -0.050367961525063766 0.062001946946379373 0.062001946946379352 -0.050367961525063634 -0.050367961525063724
leaf_weight=11871.861234225798 639.24160212278366 8008.7060208320618 2.4874717113561924 6.5563241243362409 4.0586768388748169 0.28283206047490217 1.015294576063752
leaf_count=1637023 4095 51304 343 42 26 39 140
internal_value=-0.00298548 0.0620019 -0.050368 0.0620019 0.0620019 -0.050368 -0.050368
internal_weight=20534.2 8658.56 11875.6 649.857 10.615 3.7856 1.29813
internal_count=1693012 55467 1637545 4163 68 522 179
is_linear=0
shrinkage=0.05


Tree=31
num_leaves=3
num_cat=0
split_feature=5 3
split_gain=23903.3 1.81899e-12
threshold=1.0000000180025095e-35 76.15000000000002
decision_type=2 10
left_child=-1 -2
right_child=1 -3
leaf_value=-0.050349888932877729 0.061280406559091977 0.061280406559091977
leaf_weight=11300.417692989577 6790.7033202946186 1540.08519333601
leaf_count=1637545 45213 10254
internal_value=-0.00297795 0.0612804
internal_weight=19631.2 8330.79
internal_count=1693012 55467
is_linear=0
shrinkage=0.05


Tree=32
num_leaves=5
num_cat=0
split_feature=5 0 2 2
split_gain=22600.2 1.81899e-12 4.54747e-13 8.88178e-16
threshold=1.0000000180025095e-35 6.5000000000000009 11.950000000000001 28.350000000000005
decision_type=2 10 10 10
left_child=1 -1 -3 -4
right_child=-2 2 3 -5
leaf_value=-0.050332709138043177 0.060609891511989804 -0.050332709138043177 -0.050332709138043177 -0.050332709138043011
leaf_weight=8098.212682697922 8009.9282657951117 2650.300272680819 4.0974682867526999 0.25609176792204369
leaf_count=1233270 55467 403612 624 39
internal_value=-0.00297077 -0.0503327 -0.0503327 -0.0503327
internal_weight=18762.8 10752.9 2654.65 4.35356
internal_count=1693012 1637545 404275 663
is_linear=0
shrinkage=0.05


Tree=33
num_leaves=10
num_cat=0
split_feature=5 0 1 3 1 1 2 2 2
split_gain=21376.4 1.81899e-12 1.81899e-12 4.54747e-13 2.84217e-14 2.84217e-14 2.84217e-14 8.88178e-16 8.88178e-16
threshold=1.0000000180025095e-35 7.5000000000000009 15.500000000000002 6.0500000000000007 17.500000000000004 16.500000000000004 0.15000000000000005 2.1500000000000008 2.0500000000000003
decision_type=2 10 10 10 10 10 10 10 10
left_child=1 -1 -2 4 5 6 -3 -6 -7
right_child=2 3 -4 -5 7 8 -8 -9 -10
leaf_value=-0.050316376616883055 0.059985924503059354 -0.050316376616883055 0.059985924503059354 -0.050316376616883055 -0.050316376616883055 -0.050316376616883055 -0.050316376616883055 -0.050316376616882735 -0.050316376616882701
leaf_weight=8951.1020129160024 7415.5331065356731 89.967574798967689 280.986013635993 1036.6796380248852 4.5674211527220896 5.5046484754420808 143.59572220500559 0.13746000733226527 0.12496364302933205
leaf_count=1432593 53442 14399 2025 165917 731 881 22982 22 20
internal_value=-0.00296395 -0.0503164 0.0599859 -0.0503164 -0.0503164 -0.0503164 -0.0503164 -0.0503164 -0.0503164
internal_weight=17928.2 10231.7 7696.52 1280.58 243.898 239.193 233.563 4.70488 5.62961
internal_count=1693012 1637545 55467 204952 39035 38282 37381 753 901
is_linear=0
shrinkage=0.05


Tree=34
num_leaves=5
num_cat=0
split_feature=5 0 3 1
split_gain=20226 1.81899e-12 1.81899e-12 9.09495e-13
threshold=1.0000000180025095e-35 4.5000000000000009 2.6500000000000008 15.500000000000002
decision_type=2 10 10 10
left_child=1 -1 -2 -3
right_child=2 3 -4 -5
leaf_value=-0.050300850327774552 0.059404526905254912 -0.050300850327774552 0.059404526905254912 -0.050300850327774552
leaf_weight=5153.4614316895604 170.95997697114944 4288.8863674253225 7220.0275855064392 293.25505332648754
leaf_count=866821 1283 721398 54184 49326
internal_value=-0.00295745 -0.0503009 0.0594045 -0.0503009
internal_weight=17126.6 9735.6 7390.99 4582.14
internal_count=1693012 1637545 55467 770724
is_linear=0
shrinkage=0.05


Tree=35
num_leaves=4
num_cat=0
split_feature=5 1 1
split_gain=19143.9 1.81899e-12 1.81899e-12
threshold=1.0000000180025095e-35 18.500000000000004 17.500000000000004
decision_type=2 10 10
left_child=1 -1 -2
right_child=2 -3 -4
leaf_value=-0.050286093721356166 0.058862125897461592 -0.050286093721356166 0.058862125897461592
leaf_weight=9263.214807996992 7061.3080793619156 0.22627631202340026 32.356122434139252
leaf_count=1637505 55214 40 253
internal_value=-0.00295126 -0.0502861 0.0588621
internal_weight=16357.1 9263.44 7093.66
internal_count=1693012 1637545 55467
is_linear=0
shrinkage=0.05


Tree=36
num_leaves=4
num_cat=0
split_feature=5 1 1
split_gain=18125.2 1.81899e-12 1.13687e-13
threshold=1.0000000180025095e-35 14.500000000000002 18.500000000000004
decision_type=2 10 10
left_child=1 -1 -3
right_child=-2 2 -4
leaf_value=-0.050272061348982038 0.058355537573801741 -0.050272061348982038 -0.050272061348982038
leaf_weight=8279.536856347695 6804.7920358031988 534.30274451617151 0.21529924124479194
leaf_count=1538238 55467 99267 40
internal_value=-0.00294538 -0.0502721 -0.0502721
internal_weight=15618.8 8814.05 534.518
internal_count=1693012 1637545 99307
is_linear=0
shrinkage=0.05


Tree=37
num_leaves=6
num_cat=0
split_feature=5 0 0 3 3
split_gain=17165.5 1.81899e-12 1.81899e-12 9.09495e-13 2.27374e-13
threshold=1.0000000180025095e-35 1.0000000180025095e-35 2.5000000000000004 1.6500000000000001 425.7000000000001
decision_type=2 10 10 10 10
left_child=1 -1 4 -4 -2
right_child=2 -3 3 -5 -6
leaf_value=-0.050258721978529368 0.057881898252772734 -0.050258721978529368 0.057881898252772734 0.057881898252772734 0.057881898252772734
leaf_weight=1293.8552385438234 1389.7894407436252 7092.5024399152026 13.880250021815298 5117.3423470258713 3.5288771241903296
leaf_count=252642 11815 1384903 118 43504 30
internal_value=-0.00293978 -0.0502587 0.0578819 0.0578819 0.0578819
internal_weight=14910.9 8386.36 6524.54 5131.22 1393.32
internal_count=1693012 1637545 55467 43622 11845
is_linear=0
shrinkage=0.05


Tree=38
num_leaves=3
num_cat=0
split_feature=5 0
split_gain=16261 9.09495e-13
threshold=1.0000000180025095e-35 6.5000000000000009
decision_type=2 10
left_child=1 -1
right_child=-2 -3
leaf_value=-0.050246036307353928 0.057438632202975376 -0.050246036307353928
leaf_weight=6009.3905807565898 6253.0162207782269 1969.9225449701771
leaf_count=1233270 55467 404275
internal_value=-0.00293446 -0.050246
internal_weight=14232.3 7979.31
internal_count=1693012 1637545
is_linear=0
shrinkage=0.05


Tree=39
num_leaves=5
num_cat=0
split_feature=5 2 3 1
split_gain=15407.9 1.81899e-12 1.81899e-12 5.68434e-14
threshold=1.0000000180025095e-35 0.25000000000000006 208.95000000000002 15.500000000000002
decision_type=2 10 10 10
left_child=1 -1 -2 -4
right_child=2 -3 3 -5
leaf_value=-0.050233982322786433 0.057023405972113063 -0.050233982322786433 0.057023405972113063 0.057023405972113063
leaf_weight=2269.3901065355167 5775.2443962097168 5322.5428818315268 200.11833095550537 14.903577804565428
leaf_count=489497 53476 1148048 1853 138
internal_value=-0.0029294 -0.050234 0.0570234 0.0570234
internal_weight=13582.2 7591.93 5990.27 215.022
internal_count=1693012 1637545 55467 1991
is_linear=0
shrinkage=0.05


Tree=40
num_leaves=6
num_cat=0
split_feature=5 3 0 2 1
split_gain=14602.9 1.81899e-12 9.09495e-13 4.54747e-13 1.13687e-13
threshold=1.0000000180025095e-35 132.15000000000001 5.5000000000000009 30.600000000000005 15.500000000000002
decision_type=2 10 10 10 10
left_child=2 -2 -1 -4 -3
right_child=1 4 3 -5 -6
leaf_value=-0.050222519874877504 0.056634113187494672 0.056634113187494672 -0.050222519874877504 -0.050222519874877504 0.056634113187494672
leaf_weight=4614.8877468337305 5218.8915939331055 489.06425070762634 2608.2260976149701 0.16320849256589909 28.336562633514404
leaf_count=1046213 50464 4729 591295 37 274
internal_value=-0.00292458 0.0566341 -0.0502225 -0.0502225 0.0566341
internal_weight=12959.6 5736.29 7223.28 2608.39 517.401
internal_count=1693012 55467 1637545 591332 5003
is_linear=0
shrinkage=0.05


Tree=41
num_leaves=3
num_cat=0
split_feature=5 3
split_gain=13842.8 1.81899e-12
threshold=1.0000000180025095e-35 467.30000000000001
decision_type=2 10
left_child=-1 -2
right_child=1 -3
leaf_value=-0.050211621407775846 0.056268836848190298 0.056268836848190298
leaf_weight=6872.4470457830466 5481.6493346095085 9.4046934694051725
leaf_count=1637545 55372 95
internal_value=-0.00292001 0.0562688
internal_weight=12363.5 5491.05
internal_count=1693012 55467
is_linear=0
shrinkage=0.05


Tree=42
num_leaves=7
num_cat=0
split_feature=5 0 3 2 3 2
split_gain=13125 9.09495e-13 9.09495e-13 4.54747e-13 7.10543e-15 4.44089e-16
threshold=1.0000000180025095e-35 6.5000000000000009 332.75000000000006 13.050000000000002 350.85000000000008 13.550000000000002
decision_type=2 10 10 10 10 8
left_child=1 -1 -2 -3 -4 -5
right_child=2 3 4 5 -6 -7
leaf_value=-0.05020125403292347 0.055925835187820676 -0.05020125403292347 0.055925835187820676 -0.050201254032923498 0.055925835187820676 -0.050201254032923442
leaf_weight=4924.3510856525972 5208.530733063817 1612.2700868966058 9.1889614984393102 0.25554701685905346 36.755845993757248 1.7129635973833499
leaf_count=1233270 54982 403782 97 64 388 429
internal_value=-0.00291565 -0.0502013 0.0559258 -0.0502013 0.0559258 -0.0502013
internal_weight=11793.1 6538.59 5254.48 1614.24 45.9448 1.96851
internal_count=1693012 1637545 55467 404275 485 493
is_linear=0
shrinkage=0.05


Tree=43
num_leaves=6
num_cat=0
split_feature=5 0 3 2 3
split_gain=12446.7 9.09495e-13 9.09495e-13 1.13687e-13 1.13687e-13
threshold=1.0000000180025095e-35 7.5000000000000009 134.75000000000003 21.600000000000005 535.55000000000007
decision_type=2 10 10 10 10
left_child=1 -1 -2 -3 -4
right_child=2 3 4 -5 -6
leaf_value=-0.050191404837964131 0.055603526630400607 -0.050191404837964131 0.055603526630400607 -0.050191404837964131 0.055603526630400607
leaf_weight=5442.2944718473591 4587.3937343806028 778.39323170436546 434.9786639213562 0.20134232612326641 4.0779249742627135
leaf_count=1432593 50622 204899 4800 53 45
internal_value=-0.00291151 -0.0501914 0.0556035 -0.0501914 0.0556035
internal_weight=11247.3 6220.89 5026.45 778.595 439.057
internal_count=1693012 1637545 55467 204952 4845
is_linear=0
shrinkage=0.05


Tree=44
num_leaves=5
num_cat=0
split_feature=5 1 3 3
split_gain=11805.5 1.81899e-12 9.09495e-13 5.68434e-14
threshold=1.0000000180025095e-35 11.500000000000002 155.45000000000002 467.30000000000001
decision_type=2 10 10 10
left_child=1 -1 -2 -4
right_child=2 -3 3 -5
leaf_value=-0.050182033084895675 0.055300453183322253 -0.050182033084895675 0.055300453183322253 0.055300453183322253
leaf_weight=4792.3305208855309 4478.8343926668167 1126.2394897963386 319.78056013584137 8.2328328490257245
leaf_count=1325938 51682 311607 3690 95
internal_value=-0.00290758 -0.050182 0.0553005 0.0553005
internal_weight=10725.4 5918.57 4806.85 328.013
internal_count=1693012 1637545 55467 3785
is_linear=0
shrinkage=0.05


Tree=45
num_leaves=10
num_cat=0
split_feature=5 0 1 3 3 2 3 2 2
split_gain=11199.1 9.09495e-13 9.09495e-13 4.54747e-13 2.27374e-13 1.13687e-13 1.13687e-13 5.55112e-17 5.55112e-17
threshold=1.0000000180025095e-35 6.5000000000000009 12.500000000000002 81.450000000000017 198.15000000000001 15.350000000000003 467.30000000000001 28.350000000000005 18.450000000000003
decision_type=2 10 10 10 10 10 10 10 10
left_child=2 3 -1 -2 -3 -4 -5 8 -7
right_child=1 4 5 6 -6 7 -8 -9 -10
leaf_value=-0.050173125652517858 0.055015297499540927 0.055015297499540927 -0.050173125652517858 0.055015297499540927 0.055015297499540927 -0.050173125652517858 0.055015297499540927 -0.05017312565251713 -0.050173125652517518
leaf_weight=4841.0587271326222 2731.7742310166359 1243.4328417778015 789.46549067366868 561.81490539014339 53.521962672472 0.15129920374601979 4.9710801243782035 0.068772365339100361 0.14786058547906578
leaf_count=1407850 32972 15008 229588 6781 646 44 60 20 43
internal_value=-0.00290384 0.0550153 -0.0501731 0.0550153 0.0550153 -0.0501731 0.0550153 -0.0501731 -0.0501731
internal_weight=10226.4 4595.52 5630.89 3298.56 1296.95 789.833 566.786 0.367932 0.29916
internal_count=1693012 55467 1637545 39813 15654 229695 6841 107 87
is_linear=0
shrinkage=0.05


Tree=46
num_leaves=2
num_cat=0
split_feature=5
split_gain=10625.5
threshold=1.0000000180025095e-35
decision_type=2
left_child=-1
right_child=-2
leaf_value=-0.050164649152011853 0.054746826927473735
leaf_weight=5357.1524006244726 4392.2830053716898
leaf_count=1637545 55467
internal_value=-0.00290028
internal_weight=9749.44
internal_count=1693012
is_linear=0
shrinkage=0.05


Tree=47
num_leaves=5
num_cat=0
split_feature=5 0 1 3
split_gain=10082.8 9.09495e-13 4.54747e-13 2.84217e-14
threshold=1.0000000180025095e-35 2.5000000000000004 15.500000000000002 239.95000000000002
decision_type=2 10 10 10
left_child=-1 -2 -3 -4
right_child=1 2 3 -5
leaf_value=-0.050156598638814581 0.054493939918199799 0.054493939918199799 0.054493939918199799 0.054493939918199799
leaf_weight=5096.6785825055558 896.26398120075464 3147.4793436899781 145.20308821648359 8.020597890019415
leaf_count=1637545 11845 41597 1919 106
internal_value=-0.0028969 0.0544939 0.0544939 0.0544939
internal_weight=9293.65 4196.97 3300.7 153.224
internal_count=1693012 55467 43622 2025
is_linear=0
shrinkage=0.05


Tree=48
num_leaves=5
num_cat=0
split_feature=5 1 1 3
split_gain=9569 9.09495e-13 9.09495e-13 2.27374e-13
threshold=1.0000000180025095e-35 18.500000000000004 4.5000000000000009 273.35000000000008
decision_type=2 10 10 10
left_child=1 -1 3 -2
right_child=2 -3 -4 -5
leaf_value=-0.050148935802150733 0.054255598325462784 -0.050148935802150733 0.054255598325462784 0.054255598325462784
leaf_weight=4848.714007018134 1186.2515928968787 0.11844150722026725 2806.1344883218408 16.986723802983761
leaf_count=1637505 16411 40 38821 235
internal_value=-0.00289369 -0.0501489 0.0542556 0.0542556
internal_weight=8858.21 4848.83 4009.37 1203.24
internal_count=1693012 1637545 55467 16646
is_linear=0
shrinkage=0.05


Tree=49
num_leaves=4
num_cat=0
split_feature=5 3 3
split_gain=9082.56 9.09495e-13 5.68434e-14
threshold=1.0000000180025095e-35 4.2500000000000009 3.9500000000000006
decision_type=2 8 10
left_child=1 2 -1
right_child=-2 -3 -4
leaf_value=-0.050141651839721718 0.054030859791423261 -0.050141651839721718 -0.050141651839721718
leaf_weight=399.2541610726621 3829.2954098135233 4162.7969782724977 50.954351371154189
leaf_count=141729 55467 1477728 18088
internal_value=-0.00289063 -0.0501417 -0.0501417
internal_weight=8442.3 4613.01 450.209
internal_count=1693012 1637545 159817
is_linear=0
shrinkage=0.05


Tree=50
num_leaves=3
num_cat=0
split_feature=5 0
split_gain=8621.87 9.09495e-13
threshold=1.0000000180025095e-35 4.5000000000000009
decision_type=2 10
left_child=1 -1
right_child=-2 -3
leaf_value=-0.050134724769653874 0.053818852500889469 -0.050134724769653874
leaf_weight=2323.0785941202193 3656.5248886048794 2065.5388210192323
leaf_count=866821 55467 770724
internal_value=-0.00288772 -0.0501347
internal_weight=8045.14 4388.62
internal_count=1693012 1637545
is_linear=0
shrinkage=0.05


Tree=51
num_leaves=3
num_cat=0
split_feature=5 0
split_gain=8185.45 4.54747e-13
threshold=1.0000000180025095e-35 6.5000000000000009
decision_type=2 10
left_child=-1 -2
right_child=1 -3
leaf_value=-0.050128135315422553 0.05361875988878978 0.05361875988878978
leaf_weight=4175.1169044256676 2505.6525978818536 985.19292108714581
leaf_count=1637545 39813 15654
internal_value=-0.00288496 0.0536188
internal_weight=7665.96 3490.85
internal_count=1693012 55467
is_linear=0
shrinkage=0.05


Tree=52
num_leaves=4
num_cat=0
split_feature=5 2 3
split_gain=7771.94 9.09495e-13 9.09495e-13
threshold=1.0000000180025095e-35 1.8500000000000003 535.55000000000007
decision_type=2 10 10
left_child=1 -1 -2
right_child=2 -3 -4
leaf_value=-0.050121873865516677 0.053429836322166406 -0.050121873865516677 0.053429836322166406
leaf_weight=2994.4081512009725 3329.3362511694431 977.56965386820957 2.7032610028982154
leaf_count=1234518 55422 403027 45
internal_value=-0.00288234 -0.0501219 0.0534298
internal_weight=7304.02 3971.98 3332.04
internal_count=1693012 1637545 55467
is_linear=0
shrinkage=0.05


Tree=53
num_leaves=7
num_cat=0
split_feature=5 1 0 1 3 2
split_gain=7380.05 9.09495e-13 4.54747e-13 5.68434e-14 5.68434e-14 1.42109e-14
threshold=1.0000000180025095e-35 14.500000000000002 7.5000000000000009 10.500000000000002 41.95000000000001 17.150000000000002
decision_type=2 10 10 10 10 10
left_child=2 -2 -1 5 -3 -4
right_child=1 4 3 -5 -6 -7
leaf_value=-0.050115908813892877 0.053251387707597311 0.053251387707597311 -0.050115908813892877 -0.050115908813892877 0.053251387707597311 -0.050115908813892877
leaf_weight=3305.7653729673475 2955.7863950058818 138.04906395077705 84.661327933892608 388.22511200234294 86.051347587257624 0.048458335921167328
leaf_count=1432593 51558 2408 36689 168242 1501 21
internal_value=-0.00287984 0.0532514 -0.0501159 -0.0501159 0.0532514 -0.0501159
internal_weight=6958.59 3179.89 3778.7 472.935 224.1 84.7098
internal_count=1693012 55467 1637545 204952 3909 36710
is_linear=0
shrinkage=0.05


Tree=54
num_leaves=5
num_cat=0
split_feature=5 0 0 2
split_gain=7008.57 4.54747e-13 4.54747e-13 1.13687e-13
threshold=1.0000000180025095e-35 6.5000000000000009 5.5000000000000009 38.900000000000013
decision_type=2 10 10 10
left_child=1 -1 -2 -3
right_child=2 3 -4 -5
leaf_value=-0.050110245637398389 0.053082778478086026 -0.050110245637398389 0.053082778478086026 -0.050110245637398389
leaf_weight=2707.3256428283639 1775.1410920545459 887.43081868905574 1259.0258350968361 0.05049055744893749
leaf_count=1233270 32451 404252 23016 23
internal_value=-0.00287747 -0.0501102 0.0530828 -0.0501102
internal_weight=6628.97 3594.81 3034.17 887.481
internal_count=1693012 1637545 55467 404275
is_linear=0
shrinkage=0.05


Tree=55
num_leaves=3
num_cat=0
split_feature=5 0
split_gain=6656.37 4.54747e-13
threshold=1.0000000180025095e-35 6.5000000000000009
decision_type=2 10
left_child=-1 -2
right_child=1 -3
leaf_value=-0.050104859771864921 0.052923399279441875 0.052923399279441875
leaf_weight=3419.8445167648606 2077.7242728285491 816.93657264858484
leaf_count=1637545 39813 15654
internal_value=-0.00287521 0.0529234
internal_weight=6314.51 2894.66
internal_count=1693012 55467
is_linear=0
shrinkage=0.05


Tree=56
num_leaves=6
num_cat=0
split_feature=5 1 0 1 2
split_gain=6322.39 9.09495e-13 4.54747e-13 5.68434e-14 2.84217e-14
threshold=1.0000000180025095e-35 15.500000000000002 7.5000000000000009 17.500000000000004 13.450000000000001
decision_type=2 8 10 10 10
left_child=1 -1 -2 -4 -3
right_child=2 4 3 -5 -6
leaf_value=-0.050099730493283902 0.052772707499281771 -0.050099730493283902 0.052772707499281771 0.052772707499281771 -0.050099730493283902
leaf_weight=3142.0561993650626 2373.3141217678785 111.27947246818803 375.24208930879831 12.594355080276726 0.045695093227549388
leaf_count=1581511 47676 56011 7538 253 23
internal_value=-0.00287306 -0.0500997 0.0527727 0.0527727 -0.0500997
internal_weight=6014.53 3253.38 2761.15 387.836 111.325
internal_count=1693012 1637545 55467 7791 56034
is_linear=0
shrinkage=0.05


Tree=57
num_leaves=6
num_cat=0
split_feature=5 0 3 3 3
split_gain=6005.64 4.54747e-13 4.54747e-13 4.54747e-13 5.68434e-14
threshold=1.0000000180025095e-35 6.5000000000000009 4.0500000000000007 100.05000000000001 535.55000000000007
decision_type=2 10 8 10 10
left_child=1 2 -1 -2 -5
right_child=3 -3 -4 4 -6
leaf_value=-0.050094861700005926 0.052630177319327488 -0.050094861700005926 -0.050094861700005926 0.052630177319327488 0.052630177319327488
leaf_weight=197.23005668981932 2279.6202922984958 764.09093335387297 2133.6843589365017 351.6640113517642 2.1364763751626006
leaf_count=104353 48015 404275 1128917 7407 45
internal_value=-0.00287103 -0.0500949 -0.0500949 0.0526302 0.0526302
internal_weight=5728.43 3095.01 2330.91 2633.42 353.8
internal_count=1693012 1637545 1233270 55467 7452
is_linear=0
shrinkage=0.05


Tree=58
num_leaves=5
num_cat=0
split_feature=5 0 3 1
split_gain=5705.17 4.54747e-13 4.54747e-13 5.68434e-14
threshold=1.0000000180025095e-35 1.0000000180025095e-35 425.7000000000001 9.5000000000000018
decision_type=2 10 10 8
left_child=1 3 -2 -1
right_child=2 -3 -4 -5
leaf_value=-0.050090227743877141 0.052495332159667299 -0.050090227743877141 0.052495332159667299 -0.050090227743877141
leaf_weight=389.26961121615022 2503.38166205585 2490.0722973768134 7.8778219521045676 64.983751910272986
leaf_count=216500 55293 1384903 174 36142
internal_value=-0.00286909 -0.0500902 0.0524953 -0.0500902
internal_weight=5455.59 2944.33 2511.26 454.253
internal_count=1693012 1637545 55467 252642
is_linear=0
shrinkage=0.05


Tree=59
num_leaves=8
num_cat=0
split_feature=5 0 1 3 2 2 2
split_gain=5420.11 4.54747e-13 4.54747e-13 5.68434e-14 3.55271e-15 3.55271e-15 2.22045e-16
threshold=1.0000000180025095e-35 7.5000000000000009 17.500000000000004 2.9500000000000006 6.7500000000000009 0.35000000000000003 0.25000000000000006
decision_type=2 10 8 10 10 8 10
left_child=2 -2 -1 -3 5 6 -4
right_child=1 3 4 -5 -6 -7 -8
leaf_value=-0.050085817455674767 0.052367716723312398 0.052367716723312398 -0.050085817455674711 0.052367716723312398 -0.050085817455674767 -0.050085817455674753 -0.050085817455674621
leaf_weight=2782.6231212221319 2058.1278725713491 11.482968665659426 1.5599475335329778 324.84713988378644 0.044472188455982997 16.365765351802114 0.37630313308909547
leaf_count=1626819 47676 266 912 7525 26 9568 220
internal_value=-0.00286724 0.0523677 -0.0500858 0.0523677 -0.0500858 -0.0500858 -0.0500858
internal_weight=5195.43 2394.46 2800.97 336.33 18.3465 18.302 1.93625
internal_count=1693012 55467 1637545 7791 10726 10700 1132
is_linear=0
shrinkage=0.05


Tree=60
num_leaves=6
num_cat=0
split_feature=5 3 0 0 2
split_gain=5149.63 9.09495e-13 4.54747e-13 2.27374e-13 5.68434e-14
threshold=1.0000000180025095e-35 117.85000000000001 4.5000000000000009 3.5000000000000004 15.950000000000001
decision_type=2 10 10 10 10
left_child=2 -2 3 -1 -5
right_child=1 -3 -4 4 -6
leaf_value=-0.050081624751079926 0.052246920175611611 0.052246920175611611 -0.050081624751079926 -0.050081624751079926 -0.050081624751079926
leaf_weight=1136.431317088427 2037.5210420154035 245.29107823967934 1254.1074168020859 273.89523478341289 0.14807346719317038
leaf_count=698405 49507 5960 770724 168325 91
internal_value=-0.00286549 0.0522469 -0.0500816 -0.0500816 -0.0500816
internal_weight=4947.39 2282.81 2664.58 1410.47 274.043
internal_count=1693012 55467 1637545 866821 168416
is_linear=0
shrinkage=0.05


Tree=61
num_leaves=5
num_cat=0
split_feature=5 0 1 3
split_gain=4892.96 4.54747e-13 4.54747e-13 1.13687e-13
threshold=1.0000000180025095e-35 2.5000000000000004 1.5000000000000002 15.750000000000002
decision_type=2 10 10 10
left_child=1 3 -2 -1
right_child=2 -3 -4 -5
leaf_value=-0.050077639418729052 0.052132534937948283 -0.050077639418729052 0.052132534937948283 -0.050077639418729052
leaf_weight=573.45388188841753 163.32587410137057 1700.3715159604326 2012.7962154448032 261.00013625982683
leaf_count=370462 4163 1098472 51304 168611
internal_value=-0.00286382 -0.0500776 0.0521325 -0.0500776
internal_weight=4710.95 2534.83 2176.12 834.454
internal_count=1693012 1637545 55467 539073
is_linear=0
shrinkage=0.05


Tree=62
num_leaves=7
num_cat=0
split_feature=5 0 1 1 1 2
split_gain=4649.34 4.54747e-13 4.54747e-13 2.27374e-13 1.13687e-13 3.55271e-15
threshold=1.0000000180025095e-35 7.5000000000000009 17.500000000000004 4.5000000000000009 1.5000000000000002 6.2500000000000009
decision_type=2 10 8 10 10 10
left_child=2 3 -1 4 -2 -4
right_child=1 -3 5 -5 -6 -7
leaf_value=-0.050073846742513542 0.052024204623056104 0.052024204623056104 -0.050073846742513556 0.052024204623056104 0.052024204623056104 -0.050073846742511821
leaf_weight=2395.5840256798547 155.67571258172393 291.34505806490779 15.743108986644071 1160.3692917153239 466.80276727303863 0.051539501873777094
leaf_count=1626819 4163 7791 10691 31030 12483 35
internal_value=-0.00286224 0.0520242 -0.0500738 0.0520242 0.0520242 -0.0500738
internal_weight=4485.57 2074.19 2411.38 1782.85 622.478 15.7946
internal_count=1693012 55467 1637545 47676 16646 10726
is_linear=0
shrinkage=0.05


Tree=63
num_leaves=14
num_cat=0
split_feature=5 0 0 3 3 1 2 3 1 2 2 2 3
split_gain=4418.1 4.54747e-13 4.54747e-13 2.27374e-13 1.13687e-13 5.68434e-14 5.68434e-14 7.10543e-15 1.77636e-15 1.77636e-15 1.77636e-15 1.77636e-15 1.77636e-15
threshold=1.0000000180025095e-35 7.5000000000000009 6.5000000000000009 66.750000000000014 4.9500000000000011 17.500000000000004 4.3500000000000005 3.2500000000000004 18.500000000000004 6.5500000000000007 26.200000000000006 21.600000000000005 425.7000000000001
decision_type=2 10 10 10 10 10 10 10 10 10 10 10 10
left_child=1 -1 3 -2 7 6 -3 -4 9 12 11 -8 -7
right_child=2 5 4 -5 -6 8 10 -9 -10 -11 -12 -13 -14
leaf_value=-0.050070235387233292 0.051921596673228126 -0.050070235387233292 0.051921596673228126 0.051921596673228126 0.051921596673228126 -0.050070235387233319 -0.050070235387233313 0.051921596673228126 -0.050070235387231245 -0.050070235387231023 -0.050070235387231023 -0.050070235387230405 -0.050070235387232903
leaf_weight=2006.8309140675701 1113.0672959685326 266.09760979749262 21.348253667354584 305.86095654964447 501.8443403840065 8.2481349706649709 12.379206646699453 34.713187098503113 0.043425982352346959 0.039223467931152167 0.039223467931152167 0.030818439088762584 0.22693577874451953
leaf_count=1432593 31231 189956 599 8582 14081 5888 8837 974 31 28 28 22 162
internal_value=-0.00286073 -0.0500702 0.0519216 0.0519216 0.0519216 -0.0500702 -0.0500702 0.0519216 -0.0500702 -0.0500702 -0.0500702 -0.0500702 -0.0500702
internal_weight=4270.77 2293.94 1976.83 1418.93 557.906 287.105 278.547 56.0614 8.55772 8.51429 12.4492 12.41 8.47507
internal_count=1693012 1637545 55467 39813 15654 204952 198843 1573 6109 6078 8887 8859 6050
is_linear=0
shrinkage=0.05


Tree=64
num_leaves=3
num_cat=0
split_feature=5 3
split_gain=4198.59 2.27374e-13
threshold=1.0000000180025095e-35 332.75000000000006
decision_type=2 10
left_child=-1 -2
right_child=1 -3
leaf_value=-0.050066807833066641 0.05182436813147942 0.05182436813147942
leaf_weight=2182.204698677524 1867.3892250433564 16.47236866876483
leaf_count=1637545 54982 485
internal_value=-0.0028593 0.0518244
internal_weight=4066.07 1883.86
internal_count=1693012 55467
is_linear=0
shrinkage=0.05


Tree=65
num_leaves=4
num_cat=0
split_feature=5 2 1
split_gain=3990.17 4.54747e-13 2.27374e-13
threshold=1.0000000180025095e-35 53.150000000000006 13.500000000000002
decision_type=2 10 10
left_child=1 -1 -2
right_child=2 -3 -4
leaf_value=-0.05006354789164718 0.051732232635572729 -0.05006354789164718 0.051732232635572729
leaf_weight=2075.8736130926991 1595.3492053039372 0.035495485644786551 199.74632914364338
leaf_count=1637517 49295 28 6172
internal_value=-0.00285793 -0.0500635 0.0517322
internal_weight=3871 2075.91 1795.1
internal_count=1693012 1637545 55467
is_linear=0
shrinkage=0.05


Tree=66
num_leaves=5
num_cat=0
split_feature=5 3 0 2
split_gain=3792.28 4.54747e-13 2.27374e-13 5.68434e-14
threshold=1.0000000180025095e-35 120.15000000000002 2.5000000000000004 26.200000000000006
decision_type=2 10 8 10
left_child=2 -2 3 -1
right_child=1 -3 -4 -5
leaf_value=-0.050060445216207373 0.051644893797119708 0.051644893797119708 -0.050060445216207373 -0.050060445216207373
leaf_weight=345.37951355637051 1531.4229669570923 178.9394224639982 1629.3657640039455 0.039796101744285717
leaf_count=286398 49664 5803 1351114 33
internal_value=-0.00285664 0.0516449 -0.0500604 -0.0500604
internal_weight=3685.15 1710.36 1974.79 345.419
internal_count=1693012 55467 1637545 286431
is_linear=0
shrinkage=0.05


Tree=67
num_leaves=7
num_cat=0
split_feature=5 0 0 2 1 3
split_gain=3604.36 2.27374e-13 2.27374e-13 2.27374e-13 1.13687e-13 1.13687e-13
threshold=1.0000000180025095e-35 1.5000000000000002 3.5000000000000004 2.3500000000000001 7.5000000000000009 225.95000000000002
decision_type=2 10 10 8 10 10
left_child=1 4 5 -3 -1 -2
right_child=2 3 -4 -5 -6 -7
leaf_value=-0.050057492545655863 0.051562103134674166 -0.050057492545655863 0.051562103134674166 -0.050057492545655863 -0.050057492545655863 0.051562103134674166
leaf_weight=396.11115762114059 520.60240022465587 1142.304609983461 1093.2033472806215 287.24359890306368 52.922351329121739 15.687697179615496
leaf_count=345287 17721 995738 37212 250388 46132 534
internal_value=-0.00285541 -0.0500575 0.0515621 -0.0500575 -0.0500575 0.0515621
internal_weight=3508.08 1878.58 1629.49 1429.55 449.034 536.29
internal_count=1693012 1637545 55467 1246126 391419 18255
is_linear=0
shrinkage=0.05


Tree=68
num_leaves=6
num_cat=0
split_feature=5 3 0 0 1
split_gain=3425.9 4.54747e-13 2.27374e-13 7.10543e-15 8.88178e-16
threshold=1.0000000180025095e-35 239.95000000000002 7.5000000000000009 7.5000000000000009 16.500000000000004
decision_type=2 10 10 10 10
left_child=2 -2 -1 -3 -5
right_child=1 3 -4 4 -6
leaf_value=-0.050054687146637723 0.051483598207429343 0.051483598207429343 -0.050054687146637723 0.051483598207429343 0.051483598207429308
leaf_weight=1563.3948081610724 1512.8650445155799 33.751692540943623 223.66498560458422 4.5058229677379122 1.2034185566008089
leaf_count=1432593 54057 1206 204952 161 43
internal_value=-0.00285424 0.0514836 -0.0500547 0.0514836 0.0514836
internal_weight=3339.39 1552.33 1787.06 39.4609 5.70924
internal_count=1693012 55467 1637545 1410 204
is_linear=0
shrinkage=0.05


Tree=69
num_leaves=4
num_cat=0
split_feature=5 3 3
split_gain=3256.41 2.27374e-13 1.42109e-14
threshold=1.0000000180025095e-35 189.05000000000004 425.7000000000001
decision_type=2 10 10
left_child=-1 -2 -3
right_child=1 2 -4
leaf_value=-0.050052015646970476 0.051409151164676349 0.051409151164676349 0.051409151164676349
leaf_weight=1699.9922547728056 1411.5215048175305 62.54234329238534 4.6386904232203952
leaf_count=1637545 52947 2346 174
internal_value=-0.00285312 0.0514092 0.0514092
internal_weight=3178.69 1478.7 67.181
internal_count=1693012 55467 2520
is_linear=0
shrinkage=0.05


Tree=70
num_leaves=4
num_cat=0
split_feature=5 0 0
split_gain=3095.41 2.27374e-13 2.27374e-13
threshold=1.0000000180025095e-35 3.5000000000000004 7.5000000000000009
decision_type=2 10 10
left_child=1 -1 -2
right_child=2 -3 -4
leaf_value=-0.050049475322282155 0.051338534928522452 -0.050049475322282155 0.051338534928522452
leaf_weight=689.71206060203258 1210.6347082480788 927.45066915871575 197.83654274605215
leaf_count=698405 47676 939140 7791
internal_value=-0.00285206 -0.0500495 0.0513385
internal_weight=3025.63 1617.16 1408.47
internal_count=1693012 1637545 55467
is_linear=0
shrinkage=0.05


Tree=71
num_leaves=5
num_cat=0
split_feature=5 0 1 1
split_gain=2942.48 2.27374e-13 2.84217e-14 7.10543e-15
threshold=1.0000000180025095e-35 1.0000000180025095e-35 7.5000000000000009 16.500000000000004
decision_type=2 10 10 10
left_child=1 2 -1 -4
right_child=-2 -3 3 -5
leaf_value=-0.050047061997358137 0.051271550992157577 -0.050047061997358137 -0.050047061997358137 -0.050047061997358137
leaf_weight=194.00246452947613 1341.4855114985257 1301.0246241550776 42.870119928033091 0.46783800947014142
leaf_count=206510 55467 1384903 45634 498
internal_value=-0.00285105 -0.0500471 -0.0500471 -0.0500471
internal_weight=2879.85 1538.37 237.34 43.338
internal_count=1693012 1637545 252642 46132
is_linear=0
shrinkage=0.05


Tree=72
num_leaves=11
num_cat=0
split_feature=5 0 0 2 1 2 2 1 2 3
split_gain=2797.2 2.27374e-13 2.27374e-13 2.27374e-13 1.13687e-13 5.68434e-14 4.44089e-16 2.22045e-16 1.38778e-17 1.38778e-17
threshold=1.0000000180025095e-35 7.5000000000000009 4.5000000000000009 11.250000000000002 11.500000000000002 38.900000000000013 26.200000000000006 9.5000000000000018 30.600000000000005 140.15000000000001
decision_type=2 10 10 10 10 8 8 10 10 10
left_child=1 3 -2 -1 -4 -3 -5 -7 -8 -10
right_child=2 5 4 6 -6 7 8 -9 9 -11
leaf_value=-0.050044763497945115 0.051207999472750634 -0.050044763497945115 0.051207999472750634 -0.050044763497945115 0.051207999472750634 -0.050044763497945115 -0.050044763497943456 -0.050044763497945094 -0.050044763497944213 -0.050044763497942318
leaf_weight=1278.2325133931008 577.86673069000244 181.44186929933494 429.16186727583408 1.9008085188106623 270.57559332810342 0.2162650030804788 0.040214566688519304 1.4986628519254734 0.055406736326403916 0.017873140750452876
leaf_count=1430339 25088 203033 18632 2127 11747 242 45 1677 62 20
internal_value=-0.0028501 -0.0500448 0.051208 -0.0500448 0.051208 -0.0500448 -0.0500448 -0.0500448 -0.0500448 -0.0500448
internal_weight=2741.01 1463.4 1277.6 1280.25 699.737 183.157 2.0143 1.71493 0.113494 0.0732799
internal_count=1693012 1637545 55467 1432593 30379 204952 2254 1919 127 82
is_linear=0
shrinkage=0.05


Tree=73
num_leaves=6
num_cat=0
split_feature=5 0 0 1 1
split_gain=2659.18 2.27374e-13 2.27374e-13 5.68434e-14 2.84217e-14
threshold=1.0000000180025095e-35 1.5000000000000002 7.5000000000000009 14.500000000000002 14.500000000000002
decision_type=2 10 10 10 10
left_child=1 3 -2 -1 -4
right_child=2 -3 4 -5 -6
leaf_value=-0.050042578578137736 0.051147698340837412 -0.050042578578137736 0.051147698340837412 -0.050042578578137736 0.051147698340837412
leaf_weight=328.30190770654008 1045.7925563827157 1059.3429703738075 92.435813251882792 4.446920357993803 78.462957760319114
leaf_count=386188 47676 1246126 4214 5231 3577
internal_value=-0.00284918 -0.0500426 0.0511477 -0.0500426 0.0511477
internal_weight=2608.78 1392.09 1216.69 332.749 170.899
internal_count=1693012 1637545 55467 391419 7791
is_linear=0
shrinkage=0.05


Tree=74
num_leaves=5
num_cat=0
split_feature=5 0 3 1
split_gain=2528.05 2.27374e-13 2.27374e-13 1.13687e-13
threshold=1.0000000180025095e-35 6.5000000000000009 535.55000000000007 18.500000000000004
decision_type=2 8 10 10
left_child=1 -1 -2 -3
right_child=2 3 -4 -5
leaf_value=-0.050040498689919749 0.051090471616412093 -0.050040498689919749 0.051090471616412093 -0.050040498689919749
leaf_weight=793.01570020476356 1157.6762484312057 531.20426308794413 0.93997746706008811 0.032347259111701443
leaf_count=980628 55422 656877 45 40
internal_value=-0.00284832 -0.0500405 0.0510905 -0.0500405
internal_weight=2482.87 1324.25 1158.62 531.237
internal_count=1693012 1637545 55467 656917
is_linear=0
shrinkage=0.05


Tree=75
num_leaves=6
num_cat=0
split_feature=5 0 3 1 1
split_gain=2403.45 2.27374e-13 2.27374e-13 2.84217e-14 1.42109e-14
threshold=1.0000000180025095e-35 7.5000000000000009 332.75000000000006 14.500000000000002 18.500000000000004
decision_type=2 10 10 10 8
left_child=1 -1 -2 -3 -5
right_child=2 3 -4 4 -6
leaf_value=-0.050038525333613193 0.051036156472494321 -0.050038525333613193 0.051036156472494321 -0.050038525333613193 -0.050038525333613193
leaf_weight=1102.0525709927897 1093.6063750572503 89.955499881412834 9.6467769797891361 67.684328667528462 0.023847407952415689
leaf_count=1432593 54982 116936 485 87985 31
internal_value=-0.00284749 -0.0500385 0.0510362 -0.0500385 -0.0500385
internal_weight=2362.97 1259.72 1103.25 157.664 67.7082
internal_count=1693012 1637545 55467 204952 88016
is_linear=0
shrinkage=0.05


Tree=76
num_leaves=6
num_cat=0
split_feature=5 0 1 1 3
split_gain=2285.05 2.27374e-13 2.27374e-13 1.42109e-14 7.10543e-15
threshold=1.0000000180025095e-35 1.5000000000000002 18.500000000000004 1.5000000000000002 9.8500000000000032
decision_type=2 10 10 10 10
left_child=2 3 -1 -2 -5
right_child=1 -3 -4 4 -6
leaf_value=-0.050036641271649786 0.050984606378737099 0.050984606378737099 -0.050036641271649786 0.050984606378737064 0.050984606378737099
leaf_weight=1198.2938214755268 78.842435095459223 942.81386113911867 0.029271210078149035 5.5301443785429027 23.294786252081394
leaf_count=1637505 4163 49782 40 292 1230
internal_value=-0.00284671 0.0509846 -0.0500366 0.0509846 0.0509846
internal_weight=2248.8 1050.48 1198.32 107.667 28.8249
internal_count=1693012 55467 1637545 5685 1522
is_linear=0
shrinkage=0.05


Tree=77
num_leaves=4
num_cat=0
split_feature=5 1 2
split_gain=2172.54 4.54747e-13 1.42109e-14
threshold=1.0000000180025095e-35 13.500000000000002 10.15
decision_type=2 8 10
left_child=1 -1 -3
right_child=-2 2 -4
leaf_value=-0.050034856106616787 0.050935662746779943 -0.050034856106616787 -0.050034856106616787
leaf_weight=1025.8022278355202 1000.1846338883042 113.92829175578663 0.18934331741183896
leaf_count=1473610 55467 163663 272
internal_value=-0.00284596 -0.0500349 -0.0500349
internal_weight=2140.1 1139.92 114.118
internal_count=1693012 1637545 163935
is_linear=0
shrinkage=0.05


Tree=78
num_leaves=10
num_cat=0
split_feature=5 1 1 2 2 2 3 2 2
split_gain=2065.63 2.27374e-13 1.13687e-13 1.77636e-15 1.77636e-15 1.77636e-15 1.77636e-15 6.93889e-18 6.93889e-18
threshold=1.0000000180025095e-35 16.500000000000004 12.500000000000002 8.9500000000000011 7.4500000000000011 5.3500000000000005 264.25000000000006 6.5500000000000007 5.9500000000000011
decision_type=2 10 10 10 10 10 10 10 10
left_child=1 -1 -2 4 5 6 -3 8 -7
right_child=2 3 -4 -5 -6 7 -8 -9 -10
leaf_value=-0.050033152287182581 0.050889199186932334 -0.050033152287182629 0.050889199186932334 -0.050033152287175864 -0.050033152287176474 -0.050033152287178743 -0.050033152287182463 -0.050033152287178806 -0.050033152287179784
leaf_weight=1075.0933218317223 801.99835016392171 8.4183855248265811 150.25344237685204 0.013243743451312961 0.01456811779644418 0.0231765510397971 0.76747493300354186 0.013243743451312184 0.017879053659271449
leaf_count=1623549 46715 12713 8752 20 22 35 1159 20 27
internal_value=-0.00284525 -0.0500332 0.0508892 -0.0500332 -0.0500332 -0.0500332 -0.0500332 -0.0500332 -0.0500332
internal_weight=2036.61 1084.36 952.252 9.26797 9.25473 9.24016 9.18586 0.0542993 0.0410556
internal_count=1693012 1637545 55467 13996 13976 13954 13872 82 62
is_linear=0
shrinkage=0.05


Tree=79
num_leaves=8
num_cat=0
split_feature=5 0 1 1 1 3 3
split_gain=1964.02 2.27374e-13 1.13687e-13 2.84217e-14 1.42109e-14 7.10543e-15 3.55271e-15
threshold=1.0000000180025095e-35 1.5000000000000002 14.500000000000002 4.5000000000000009 17.500000000000004 20.250000000000004 12.450000000000001
decision_type=2 10 10 10 10 10 10
left_child=1 3 -2 -1 5 6 -4
right_child=2 -3 4 -5 -6 -7 -8
leaf_value=-0.050031533565297173 0.050845080454412585 -0.050031533565297173 0.050845080454412578 -0.050031533565297173 0.050845080454412585 0.050845080454412585 0.050845080454412585
leaf_weight=203.04513366881292 842.68573394045234 784.94944837014191 16.2463559396565 43.51430585142225 4.135138886049389 35.009752940386534 8.4990996867418271
leaf_count=322339 51558 1246126 994 69080 253 2142 520
internal_value=-0.00284458 -0.0500315 0.0508451 -0.0500315 0.0508451 0.0508451 0.0508451
internal_weight=1938.08 1031.51 906.576 246.559 63.8903 59.7552 24.7455
internal_count=1693012 1637545 55467 391419 3909 3656 1514
is_linear=0
shrinkage=0.05


Tree=80
num_leaves=4
num_cat=0
split_feature=5 0 3
split_gain=1867.45 1.13687e-13 1.13687e-13
threshold=1.0000000180025095e-35 2.5000000000000004 120.15000000000002
decision_type=2 8 10
left_child=1 -1 -2
right_child=2 -3 -4
leaf_value=-0.050029997110058212 0.050803186650067035 -0.050029997110058212 0.050803186650067035
leaf_weight=171.63191247236682 772.76153564453125 809.59909991652239 90.293475985527039
leaf_count=286431 49664 1351114 5803
internal_value=-0.00284394 -0.05003 0.0508032
internal_weight=1844.29 981.231 863.055
internal_count=1693012 1637545 55467
is_linear=0
shrinkage=0.05


Tree=81
num_leaves=5
num_cat=0
split_feature=5 2 3 3
split_gain=1775.66 1.13687e-13 1.13687e-13 1.77636e-15
threshold=1.0000000180025095e-35 14.850000000000003 293.45000000000005 535.55000000000007
decision_type=2 8 10 10
left_child=1 -1 -2 -4
right_child=2 -3 3 -5
leaf_value=-0.050028531911625831 0.050763399239537037 -0.050028531911625831 0.050763399239537044 0.050763399239536905
leaf_weight=781.45210151001811 810.09623846225441 151.95031807385385 10.827747715637084 0.66655081696808416
leaf_count=1370966 54691 266579 731 45
internal_value=-0.00284333 -0.0500285 0.0507634 0.0507634
internal_weight=1754.99 933.402 821.591 11.4943
internal_count=1693012 1637545 55467 776
is_linear=0
shrinkage=0.05


Tree=82
num_leaves=5
num_cat=0
split_feature=5 0 0 1
split_gain=1688.42 1.13687e-13 1.13687e-13 5.68434e-14
threshold=1.0000000180025095e-35 5.5000000000000009 6.5000000000000009 11.500000000000002
decision_type=2 10 10 10
left_child=1 -1 -2 -4
right_child=2 -3 3 -5
leaf_value=-0.050027138414178364 0.050725615617714173 -0.050027138414178364 0.050725615617714173 0.050725615617714173
leaf_weight=567.27397916355403 561.36605426855385 320.62998323165812 75.872472258284688 144.85001068748534
leaf_count=1046213 39813 591332 5381 10273
internal_value=-0.00284275 -0.0500271 0.0507256 0.0507256
internal_weight=1669.99 887.904 782.089 220.722
internal_count=1693012 1637545 55467 15654
is_linear=0
shrinkage=0.05


Tree=83
num_leaves=8
num_cat=0
split_feature=5 0 1 3 2 3 3
split_gain=1605.5 1.13687e-13 1.13687e-13 1.13687e-13 5.68434e-14 3.55271e-15 1.38778e-17
threshold=1.0000000180025095e-35 5.5000000000000009 13.500000000000002 264.25000000000006 18.450000000000003 535.55000000000007 198.15000000000001
decision_type=2 10 8 10 10 10 10
left_child=1 2 -1 -2 -3 -5 -6
right_child=3 4 -4 5 6 -7 -8
leaf_value=-0.050025820637528244 0.050689725040497471 -0.050025820637528244 -0.050025820637528244 0.050689725040497471 -0.050025820637528244 0.050689725040497319 -0.050025820637523401
leaf_weight=532.62753908272134 729.72209635656327 304.89685286878375 6.9940526294521979 14.133005342446264 0.093357192177790149 0.60397458728402931 0.010315711842849851
leaf_count=1032653 54369 591131 13560 1053 181 45 20
internal_value=-0.0028422 -0.0500258 -0.0500258 0.0506897 -0.0500258 0.0506897 -0.0500258
internal_weight=1589.08 844.622 539.622 744.459 305.001 14.737 0.103673
internal_count=1693012 1637545 1046213 55467 591332 1098 201
is_linear=0
shrinkage=0.05


Tree=84
num_leaves=5
num_cat=0
split_feature=5 0 1 2
split_gain=1526.68 1.13687e-13 5.68434e-14 1.42109e-14
threshold=1.0000000180025095e-35 5.5000000000000009 12.500000000000002 14.450000000000001
decision_type=2 10 10 10
left_child=1 -1 -3 -4
right_child=-2 2 3 -5
leaf_value=-0.05002455756637602 0.05065563523944825 -0.05002455756637602 -0.05002455756637602 -0.05002455756637602
leaf_weight=513.31656391627621 708.61593756079674 184.2274279256817 105.84090988303069 0.06427416775841166
leaf_count=1046213 55467 375482 215719 131
internal_value=-0.00284168 -0.0500246 -0.0500246 -0.0500246
internal_weight=1512.07 803.449 290.133 105.905
internal_count=1693012 1637545 591332 215850
is_linear=0
shrinkage=0.05


Tree=85
num_leaves=8
num_cat=0
split_feature=5 0 0 1 3 1 3
split_gain=1451.75 2.27374e-13 1.13687e-13 5.68434e-14 5.68434e-14 1.42109e-14 4.44089e-16
threshold=1.0000000180025095e-35 1.0000000180025095e-35 5.5000000000000009 17.500000000000004 24.750000000000004 17.500000000000004 248.05000000000004
decision_type=2 10 10 10 10 10 10
left_child=1 5 4 -4 -2 -1 -5
right_child=2 -3 3 6 -6 -7 -8
leaf_value=-0.050023356048761417 0.05062324893018208 -0.050023356048761417 0.05062324893018208 0.050623248930182066 0.05062324893018208 -0.050023356048761417 0.050623248930181886
leaf_weight=117.81806066620629 205.5763368178159 646.36813160884776 276.79724091943353 2.833271411247551 189.02662698645145 0.096145242743658765 0.24319926276803006
leaf_count=252436 16906 1384903 22763 233 15545 206 20
internal_value=-0.00284118 -0.0500234 0.0506232 0.0506232 0.0506232 -0.0500234 0.0506232
internal_weight=1438.76 764.282 674.477 279.874 394.603 117.914 3.07647
internal_count=1693012 1637545 55467 23016 32451 252642 253
is_linear=0
shrinkage=0.05


Tree=86
num_leaves=8
num_cat=0
split_feature=5 0 3 0 3 3 3
split_gain=1380.52 1.13687e-13 1.13687e-13 2.84217e-14 1.42109e-14 3.55271e-15 1.77636e-15
threshold=1.0000000180025095e-35 6.5000000000000009 214.25000000000003 7.5000000000000009 8.6500000000000004 293.45000000000005 535.55000000000007
decision_type=2 10 10 10 8 10 10
left_child=1 -1 -2 4 -3 -4 -7
right_child=2 3 5 -5 -6 6 -8
leaf_value=-0.050022219295630957 0.050592484639793767 -0.050022219295630957 0.05059248463979376 -0.050022219295630957 -0.050022219295630957 0.050592484639793781 0.0505924846397936
leaf_weight=547.53724927810254 620.18051982857287 23.343155588430818 12.800590742379429 90.99293286469765 65.150659340870334 8.4604266118258202 0.52081969566643316
leaf_count=1233270 53585 52578 1106 204952 146745 731 45
internal_value=-0.0028407 -0.0500222 0.0505925 -0.0500222 -0.0500222 0.0505925 0.0505925
internal_weight=1368.99 727.024 641.962 179.487 88.4938 21.7818 8.98125
internal_count=1693012 1637545 55467 404275 199323 1882 776
is_linear=0
shrinkage=0.05


Tree=87
num_leaves=11
num_cat=0
split_feature=5 0 1 0 2 3 3 3 3 3
split_gain=1312.8 1.13687e-13 1.13687e-13 2.84217e-14 1.42109e-14 1.42109e-14 4.44089e-16 4.44089e-16 4.44089e-16 1.11022e-16
threshold=1.0000000180025095e-35 6.5000000000000009 17.500000000000004 7.5000000000000009 16.150000000000002 76.15000000000002 172.85000000000005 95.050000000000011 12.750000000000002 8.8500000000000032
decision_type=2 10 10 10 10 10 10 10 10 10
left_child=1 -1 -2 5 -5 -3 7 8 9 -4
right_child=2 3 6 4 -6 -7 -8 -9 -10 -11
leaf_value=-0.050021135570731394 0.050563252568943388 -0.050021135570731394 0.050563252568943229 -0.050021135570731394 -0.050021135570731394 -0.050021135570731394 0.050563252568943264 0.050563252568943284 0.050563252568943354 0.050563252568943201
leaf_weight=520.84453922405373 608.21068797260523 64.393627858546097 0.40757408365607295 86.505458633764647 0.051524024573153748 19.786070092231967 0.36351202055811871 0.40757408365607251 1.3438929244875906 0.26437237858772278
leaf_count=1233270 55214 152473 37 204830 122 46850 33 37 122 24
internal_value=-0.00284025 -0.0500211 0.0505633 -0.0500211 -0.0500211 -0.0500211 0.0505633 0.0505633 0.0505633 0.0505633
internal_weight=1302.58 691.581 610.998 170.737 86.557 84.1797 2.78693 2.42341 2.01584 0.671946
internal_count=1693012 1637545 55467 404275 204952 199323 253 220 183 61
is_linear=0
shrinkage=0.05


Tree=88
num_leaves=4
num_cat=0
split_feature=5 1 1
split_gain=1248.43 1.13687e-13 1.13687e-13
threshold=1.0000000180025095e-35 8.5000000000000018 14.500000000000002
decision_type=2 10 10
left_child=1 -1 -2
right_child=2 -3 -4
leaf_value=-0.050020099762048381 0.050535484730074999 -0.050020099762048381 0.050535484730074999
leaf_weight=415.62146481522359 540.52868050150573 242.24418151116697 40.981547229923308
leaf_count=1034556 51558 602989 3909
internal_value=-0.00283982 -0.0500201 0.0505355
internal_weight=1239.38 657.866 581.51
internal_count=1693012 1637545 55467
is_linear=0
shrinkage=0.05


Tree=89
num_leaves=4
num_cat=0
split_feature=5 1 3
split_gain=1187.23 1.13687e-13 1.13687e-13
threshold=1.0000000180025095e-35 1.0000000180025095e-35 155.45000000000002
decision_type=2 8 10
left_child=1 -1 -2
right_child=2 -3 -4
leaf_value=-0.050019123145517541 0.050509094184500961 -0.050019123145517541 0.050509094184500961
leaf_weight=55.274261036975076 515.66586464643478 570.5188500173972 37.765475362539291
leaf_count=144639 51682 1492906 3785
internal_value=-0.00283941 -0.0500191 0.0505091
internal_weight=1179.22 625.793 553.431
internal_count=1693012 1637545 55467
is_linear=0
shrinkage=0.05


Tree=90
num_leaves=6
num_cat=0
split_feature=5 1 2 3 3
split_gain=1129.04 1.13687e-13 1.13687e-13 8.88178e-16 8.88178e-16
threshold=1.0000000180025095e-35 16.500000000000004 17.150000000000002 233.05000000000004 9.0500000000000025
decision_type=2 10 10 10 10
left_child=2 -2 -1 4 -3
right_child=1 3 -4 -5 -6
leaf_value=-0.050018189793684345 0.050484019319971984 0.050484019319971984 -0.050018189793684345 0.050484019319971873 0.050484019319971978
leaf_weight=595.06698338166461 521.40601104125381 0.78813875280320544 0.21665911527816106 0.42730414308607567 4.0736328307539225
leaf_count=1636949 54910 83 596 45 429
internal_value=-0.00283902 0.050484 -0.0500182 0.050484 0.050484
internal_weight=1121.98 526.695 595.284 5.28908 4.86177
internal_count=1693012 55467 1637545 557 512
is_linear=0
shrinkage=0.05


Tree=91
num_leaves=5
num_cat=0
split_feature=5 0 3 1
split_gain=1073.72 1.13687e-13 5.68434e-14 1.42109e-14
threshold=1.0000000180025095e-35 1.0000000180025095e-35 90.250000000000014 17.500000000000004
decision_type=2 10 10 10
left_child=1 3 -2 -1
right_child=2 -3 -4 -5
leaf_value=-0.050017304130873103 0.050460194130131281 -0.050017304130873103 0.050460194130131281 -0.050017304130873103
leaf_weight=87.292063702363521 424.86028669867665 478.89778358710464 76.378158953040838 0.071234551025553539
leaf_count=252436 47015 1384903 8452 206
internal_value=-0.00283866 -0.0500173 0.0504602 -0.0500173
internal_weight=1067.5 566.261 501.238 87.3633
internal_count=1693012 1637545 55467 252642
is_linear=0
shrinkage=0.05


Tree=92
num_leaves=7
num_cat=0
split_feature=5 2 0 1 3 3
split_gain=1021.12 1.13687e-13 5.68434e-14 2.84217e-14 2.84217e-14 1.42109e-14
threshold=1.0000000180025095e-35 38.900000000000013 4.5000000000000009 4.5000000000000009 158.85000000000005 132.15000000000001
decision_type=2 10 10 10 10 10
left_child=1 -1 3 4 -2 -5
right_child=2 -3 -4 5 -6 -7
leaf_value=-0.050016456868141206 0.050437545633510633 -0.050016456868141206 0.050437545633510633 0.050437545633510633 0.050437545633510633 0.050437545633510633
leaf_weight=538.63564918935299 135.0330222286284 0.017433788627385094 261.25131717510521 64.351809026673436 8.1181488335132581 8.2471448425203544
leaf_count=1637492 15702 53 30379 7483 944 959
internal_value=-0.0028383 -0.0500165 0.0504375 0.0504375 0.0504375 0.0504375
internal_weight=1015.65 538.653 477.001 215.75 143.151 72.599
internal_count=1693012 1637545 55467 25088 16646 8442
is_linear=0
shrinkage=0.05


Tree=93
num_leaves=6
num_cat=0
split_feature=5 0 3 1 3
split_gain=971.11 1.13687e-13 5.68434e-14 2.84217e-14 3.55271e-15
threshold=1.0000000180025095e-35 5.5000000000000009 233.05000000000004 7.5000000000000009 19.050000000000004
decision_type=2 10 10 10 10
left_child=1 -1 -2 4 -3
right_child=2 3 -4 -5 -6
leaf_value=-0.050015654034490223 0.050416019561164316 -0.050015654034490202 0.050416019561164316 -0.050015654034490223 -0.050015654034490223
leaf_weight=327.36187050718581 441.47918822430074 11.411213639599739 12.447444579564033 165.27563898317749 8.3419604494702053
leaf_count=1046213 53946 36469 1521 528203 26660
internal_value=-0.00283797 -0.0500157 0.050416 -0.0500157 -0.0500157
internal_weight=966.317 512.391 453.927 185.029 19.7532
internal_count=1693012 1637545 55467 591332 63129
is_linear=0
shrinkage=0.05


Tree=94
num_leaves=14
num_cat=0
split_feature=5 0 1 1 3 1 3 3 3 3 3 2 3
split_gain=923.559 5.68434e-14 5.68434e-14 5.68434e-14 5.68434e-14 2.84217e-14 2.84217e-14 7.10543e-15 3.55271e-15 8.88178e-16 4.44089e-16 2.22045e-16 1.11022e-16
threshold=1.0000000180025095e-35 5.5000000000000009 17.500000000000004 4.5000000000000009 10.050000000000002 14.500000000000002 12.250000000000002 7.8500000000000005 208.95000000000002 6.8500000000000005 273.35000000000008 0.75000000000000011 248.05000000000004
decision_type=2 10 10 10 10 10 8 10 10 8 10 10 10
left_child=2 4 3 6 -2 -3 -1 9 -9 -7 12 -4 -10
right_child=1 5 11 -5 -6 7 -8 8 10 -11 -12 -13 -14
leaf_value=-0.050014891907534068 0.050395568309880595 0.050395568309880595 -0.050014891907534068 -0.050014891907534068 0.050395568309880595 0.050395568309880547 -0.050014891907534068 0.050395568309880581 0.050395568309880602 0.05039556830988054 0.05039556830988054 -0.050014891907534026 0.050395568309880449
leaf_weight=44.765031818154966 65.8915508040227 148.79917990928516 0.73280390125000749 308.24881178888609 186.82641576509923 4.1352574727498022 132.51041137977154 23.65896836575121 0.5061991256661702 0.80213092220947135 0.99682289361953735 1.1512938627274705 0.34265786968171597
leaf_count=150397 8461 19107 2462 1035623 23990 531 445195 3038 65 103 128 3868 44
internal_value=-0.00283765 0.0503956 -0.0500149 -0.0500149 0.0503956 0.0503956 -0.0500149 0.0503956 0.0503956 0.0503956 0.0503956 -0.0500149 0.0503956
internal_weight=919.368 431.959 487.408 485.524 252.718 179.241 177.275 30.442 25.5046 4.93739 1.84568 1.8841 0.848857
internal_count=1693012 55467 1637545 1631215 32451 23016 595592 3909 3275 634 237 6330 109
is_linear=0
shrinkage=0.05


Tree=95
num_leaves=4
num_cat=0
split_feature=5 2 3
split_gain=878.344 5.68434e-14 5.68434e-14
threshold=1.0000000180025095e-35 16.750000000000004 41.250000000000007
decision_type=2 10 10
left_child=1 -1 -2
right_child=2 -3 -4
leaf_value=-0.050014164728182153 0.050376128005425069 -0.050014164728182153 0.050376128005425069
leaf_weight=463.46051776257809 274.66856121644378 0.18318731832550739 136.37830595904961
leaf_count=1636898 37064 647 18403
internal_value=-0.00283735 -0.0500142 0.0503761
internal_weight=874.691 463.644 411.047
internal_count=1693012 1637545 55467
is_linear=0
shrinkage=0.05


Tree=96
num_leaves=10
num_cat=0
split_feature=5 0 1 1 2 2 2 3 2
split_gain=835.351 5.68434e-14 5.68434e-14 5.68434e-14 5.68434e-14 1.42109e-14 2.22045e-16 2.22045e-16 3.46945e-18
threshold=1.0000000180025095e-35 2.5000000000000004 17.500000000000004 10.500000000000002 8.7500000000000018 19.450000000000006 8.9500000000000011 9.0500000000000025 26.200000000000006
decision_type=2 8 10 10 10 10 8 10 10
left_child=1 5 3 -2 -3 -1 -6 -4 -7
right_child=2 4 7 -5 6 8 -8 -9 -10
leaf_value=-0.050013475172400082 0.050357651089277068 -0.050013475172400082 0.050357651089277068 0.050357651089277068 -0.050013475172400138 -0.050013475172400082 -0.050013475172400047 0.050357651089277047 -0.050013475172394461
leaf_weight=77.125441290903836 285.3563451115042 362.54871860076673 0.28207022696733375 103.99929268285632 0.099112879484890781 0.0096958251669992945 1.2456442054826764 1.5020239586010573 0.0088878397364169359
leaf_count=286362 40466 1346121 40 14748 368 36 4625 213 33
internal_value=-0.00283706 -0.0500135 0.0503577 0.0503577 -0.0500135 -0.0500135 -0.0500135 0.0503577 -0.0500135
internal_weight=832.177 441.038 391.14 389.356 363.893 77.144 1.34476 1.78409 0.0185837
internal_count=1693012 1637545 55467 55214 1351114 286431 4993 253 69
is_linear=0
shrinkage=0.05


Tree=97
num_leaves=6
num_cat=0
split_feature=5 0 0 2 3
split_gain=794.47 5.68434e-14 5.68434e-14 5.68434e-14 2.84217e-14
threshold=1.0000000180025095e-35 7.5000000000000009 4.5000000000000009 13.550000000000002 82.750000000000014
decision_type=2 10 10 10 10
left_child=1 3 4 -1 -2
right_child=2 -3 -4 -5 -6
leaf_value=-0.050012814042008927 0.050340082850151818 -0.050012814042008927 0.050340082850151818 -0.050012814042008927 0.050340082850151818
leaf_weight=366.72574754431844 139.34904293017462 52.507974863285199 203.84670752519742 0.29949365029460651 28.994424543809146
leaf_count=1431424 20767 204952 30379 1169 4321
internal_value=-0.00283679 -0.0500128 0.0503401 -0.0500128 0.0503401
internal_weight=791.723 419.533 372.19 367.025 168.343
internal_count=1693012 1637545 55467 1432593 25088
is_linear=0
shrinkage=0.05


Tree=98
num_leaves=5
num_cat=0
split_feature=5 0 3 3
split_gain=755.596 5.68434e-14 5.68434e-14 1.42109e-14
threshold=1.0000000180025095e-35 2.5000000000000004 87.15000000000002 395.35000000000008
decision_type=2 10 8 10
left_child=2 3 -1 -2
right_child=1 -3 -4 -5
leaf_value=-0.050012190060326915 0.05032338851270092 0.05032338851270092 -0.050012190060326915 0.05032338851270092
leaf_weight=266.80728333737352 75.342136807739735 278.5232789684087 132.26992797713319 0.28732170816510816
leaf_count=1094798 11800 43622 542747 45
internal_value=-0.00283653 0.0503234 -0.0500122 0.0503234
internal_weight=753.23 354.153 399.077 75.6295
internal_count=1693012 55467 1637545 11845
is_linear=0
shrinkage=0.05


Tree=99
num_leaves=13
num_cat=0
split_feature=5 0 0 1 3 3 3 3 3 3 3 3
split_gain=718.631 1.13687e-13 5.68434e-14 5.68434e-14 1.42109e-14 1.77636e-15 1.77636e-15 1.77636e-15 1.77636e-15 2.22045e-16 2.22045e-16 5.55112e-17
threshold=1.0000000180025095e-35 6.5000000000000009 7.5000000000000009 13.500000000000002 332.75000000000006 282.85000000000008 208.95000000000002 165.65000000000001 96.750000000000014 152.15000000000001 142.95000000000002 370.35000000000008
decision_type=2 8 10 10 10 10 10 10 10 10 10 10
left_child=1 -1 3 -2 -4 6 7 8 -5 10 -10 -7
right_child=2 -3 4 5 -6 11 -8 -9 9 -11 -12 -13
leaf_value=-0.050011597132623868 0.050307519427342365 -0.050011597132623868 0.050307519427342365 0.0503075194273424 0.050307519427342365 0.050307519427341962 0.050307519427342101 0.050307519427342129 0.050307519427342268 0.050307519427342108 0.050307519427341997 0.050307519427341997
leaf_weight=227.33079408842605 278.47802111227065 152.28757822557236 46.865620674565434 8.8822319712489755 0.46780565101653238 0.22478972841054279 0.34022229164838869 0.38882547616958696 0.85663112718612022 0.20048813614994287 0.13973415549844503 0.13973415549844503
leaf_count=980628 45837 656917 7714 1462 77 37 56 64 141 33 23 23
internal_value=-0.00283628 -0.0500116 0.0503075 0.0503075 0.0503075 0.0503075 0.0503075 0.0503075 0.0503075 0.0503075 0.0503075 0.0503075
internal_weight=716.602 379.618 336.984 289.651 47.3334 11.1727 10.8081 10.4679 10.0791 1.19685 0.996365 0.364524
internal_count=1693012 1637545 55467 47676 7791 1839 1779 1723 1659 197 164 60
is_linear=0
shrinkage=0.05


Tree=100
num_leaves=9
num_cat=0
split_feature=5 0 0 2 2 2 2 2
split_gain=683.479 5.68434e-14 5.68434e-14 1.42109e-14 1.77636e-15 1.77636e-15 1.77636e-15 1.73472e-18
threshold=1.0000000180025095e-35 2.5000000000000004 7.5000000000000009 2.5500000000000003 30.600000000000005 18.250000000000004 12.15 23.700000000000006
decision_type=2 8 10 10 10 10 10 10
left_child=1 3 -2 -1 5 6 -5 -7
right_child=2 -3 -4 4 -6 7 -8 -9
leaf_value=-0.050011030176953998 0.050292428468907295 -0.050011030176953998 0.050292428468907295 -0.050011030176954033 -0.050011030176933861 -0.050011030176945054 -0.050011030176952423 -0.050011030176942653
leaf_weight=53.490170702745672 275.60483309067786 297.94496548926691 45.038116759154946 9.5980462217994429 0.0044103601248942628 0.0099233102810111218 0.05623209159239273 0.0044103601248934874
leaf_count=242566 47676 1351114 7791 43525 20 45 255 20
internal_value=-0.00283605 -0.050011 0.0502924 -0.050011 -0.050011 -0.050011 -0.050011 -0.050011
internal_weight=681.751 361.108 320.643 63.1632 9.67302 9.66861 9.65428 0.0143337
internal_count=1693012 1637545 55467 286431 43865 43845 43780 65
is_linear=0
shrinkage=0.05


Tree=101
num_leaves=7
num_cat=0
split_feature=5 1 3 3 3 3
split_gain=650.051 5.68434e-14 3.55271e-15 1.77636e-15 1.77636e-15 1.77636e-15
threshold=1.0000000180025095e-35 15.500000000000002 317.65000000000003 248.05000000000004 172.85000000000005 162.05000000000004
decision_type=2 10 10 10 10 10
left_child=-1 -2 3 4 5 -3
right_child=1 2 -4 -5 -6 -7
leaf_value=-0.050010492564327227 0.050278086198043775 0.050278086198043803 0.050278086198043394 0.050278086198043484 0.050278086198043581 0.050278086198043116
leaf_weight=343.50031708381721 293.95152925048023 9.9776968313380987 0.23651651805266816 0.31352189602330405 0.47303303610533554 0.13750960351899344
leaf_count=1637545 53442 1814 43 57 86 25
internal_value=-0.00283583 0.0502781 0.0502781 0.0502781 0.0502781 0.0502781
internal_weight=648.59 305.09 11.1383 10.9018 10.5882 10.1152
internal_count=1693012 55467 2025 1982 1925 1839
is_linear=0
shrinkage=0.05


Tree=102
num_leaves=13
num_cat=0
split_feature=5 0 1 1 1 3 2 2 3 3 3 3
split_gain=618.263 5.68434e-14 5.68434e-14 2.84217e-14 1.42109e-14 8.88178e-16 4.44089e-16 5.55112e-17 5.55112e-17 1.38778e-17 3.46945e-18 1.73472e-18
threshold=1.0000000180025095e-35 6.5000000000000009 16.500000000000004 10.500000000000002 16.500000000000004 12.750000000000002 0.15000000000000005 1.0000000180025095e-35 41.250000000000007 51.350000000000001 74.850000000000009 51.350000000000001
decision_type=2 10 10 10 10 10 10 10 10 10 10 10
left_child=2 3 -1 -2 -3 -6 7 8 -4 -9 11 -10
right_child=1 4 6 -5 5 -7 -8 9 10 -11 -12 -13
leaf_value=-0.050009980250990377 0.050264452531253334 0.050264452531253334 -0.050009980250990294 0.050264452531253334 0.050264452531253313 0.050264452531253327 -0.050009980250990349 -0.050009980250989655 -0.050009980250979927 -0.050009980250982293 -0.050009980250984409 -0.050009980250981093
leaf_weight=323.95813864306547 190.95511085959151 79.010313499253243 0.30549118644557838 17.406657130457461 0.69605694478377644 2.2190086059272289 2.3924489389173687 0.070037496043369174 0.004788888618350029 0.0061856477987021199 0.0083805550821125507 0.0053874996956437826
leaf_count=1623549 36487 15097 1531 3326 133 424 11990 351 24 31 42 27
internal_value=-0.00283561 0.0502645 -0.05001 0.0502645 0.0502645 0.0502645 -0.05001 -0.05001 -0.05001 -0.05001 -0.05001 -0.05001
internal_weight=617.038 290.287 326.751 208.362 81.9254 2.91507 2.79272 0.400271 0.324048 0.0762231 0.0185569 0.0101764
internal_count=1693012 55467 1637545 39813 15654 557 13996 2006 1624 382 93 51
is_linear=0
shrinkage=0.05


Tree=103
num_leaves=11
num_cat=0
split_feature=5 0 1 1 1 2 2 3 3 2
split_gain=588.033 5.68434e-14 5.68434e-14 1.42109e-14 3.55271e-15 2.22045e-16 2.22045e-16 2.22045e-16 1.11022e-16 6.93889e-18
threshold=1.0000000180025095e-35 6.5000000000000009 17.500000000000004 14.500000000000002 17.500000000000004 6.9500000000000011 3.4500000000000006 29.850000000000005 248.05000000000004 5.7500000000000009
decision_type=2 10 10 10 8 10 10 10 10 10
left_child=1 -1 -2 -3 -5 6 -6 -4 -9 -8
right_child=2 3 7 4 5 -7 9 8 -10 -11
leaf_value=-0.050009491348076564 0.050251485934228284 -0.050009491348076564 0.05025148593422829 -0.050009491348076557 -0.050009491348076585 -0.050009491348064372 -0.050009491348075447 0.050251485934228207 0.050251485934227784 -0.050009491348064032
leaf_weight=234.08364282891853 274.93930020090193 58.88088024238823 0.53280880069360026 16.691273916570939 1.1041090356011394 0.0045553750824184327 0.049539704021299369 0.62741970922797918 0.099590430036187172 0.0039859531971160314
leaf_count=1233270 55214 310214 107 87938 5817 24 261 126 20 21
internal_value=-0.00283541 -0.0500095 0.0502515 -0.0500095 -0.0500095 -0.0500095 -0.0500095 0.0502515 0.0502515 -0.0500095
internal_weight=587.017 310.818 276.199 76.7343 17.8535 1.16219 1.15763 1.25982 0.72701 0.0535257
internal_count=1693012 1637545 55467 404275 94061 6123 6099 253 146 282
is_linear=0
shrinkage=0.05


Tree=104
num_leaves=10
num_cat=0
split_feature=5 3 2 1 1 3 3 2 3
split_gain=559.285 1.13687e-13 5.68434e-14 8.88178e-16 2.22045e-16 2.22045e-16 1.11022e-16 5.55112e-17 5.55112e-17
threshold=1.0000000180025095e-35 225.95000000000002 11.750000000000002 12.500000000000002 15.500000000000002 395.35000000000008 370.35000000000008 24.850000000000005 264.25000000000006
decision_type=2 10 10 10 8 10 10 10 10
left_child=2 -2 -1 -3 5 -5 8 -4 -6
right_child=1 3 7 4 6 -7 -8 -9 -10
leaf_value=-0.050009030876894525 0.050239165202526984 0.050239165202526984 -0.050009030876894525 0.050239165202526963 0.050239165202526664 0.050239165202526748 0.050239165202526595 -0.050009030876893006 0.050239165202526782
leaf_weight=295.24877995254064 255.01208431087434 5.8796097841113797 0.38024232923635182 1.1133829969912761 0.17529859952628624 0.2321521993726493 0.1279205996543169 0.032860448205610737 0.25110339932143688
leaf_count=1635257 53825 1241 2106 235 37 49 27 182 53
internal_value=-0.00283522 0.0502392 -0.050009 0.0502392 0.0502392 0.0502392 0.0502392 -0.050009 0.0502392
internal_weight=558.453 262.792 295.662 7.77947 1.89986 1.34554 0.554323 0.413103 0.426402
internal_count=1693012 55467 1637545 1642 401 284 117 2288 90
is_linear=0
shrinkage=0.05


Tree=105
num_leaves=15
num_cat=0
split_feature=5 0 0 1 1 2 2 2 3 3 3 3 3 3
split_gain=531.945 5.68434e-14 5.68434e-14 2.84217e-14 1.42109e-14 1.42109e-14 1.77636e-15 1.77636e-15 1.77636e-15 1.77636e-15 1.77636e-15 1.77636e-15 1.77636e-15 1.11022e-16
threshold=1.0000000180025095e-35 2.5000000000000004 5.5000000000000009 3.5000000000000004 15.500000000000002 30.600000000000005 14.750000000000002 6.9500000000000011 142.95000000000002 395.35000000000008 304.55000000000007 264.25000000000006 189.05000000000004 255.65000000000001
decision_type=2 10 10 10 10 10 10 10 10 10 10 10 10 10
left_child=1 5 -2 6 -4 -1 7 8 -3 10 11 12 -6 -10
right_child=2 3 4 -5 9 -7 -8 -9 13 -11 -12 -13 -14 -15
leaf_value=-0.050008587224125371 0.05022744033500473 -0.050008587224125392 0.05022744033500473 -0.050008587224125371 0.050227440335004772 -0.050008587224125371 -0.050008587224118189 -0.050008587224124594 -0.05000858722412517 0.05022744033500387 0.05022744033500387 0.050227440335004148 0.050227440335004495 -0.050008587224125038
leaf_weight=92.581151564096217 146.2813214357011 9.2953328985313348 94.622391243930906 178.64533393202873 8.3844336960464627 0.0034349554334757162 0.012365839560516956 0.11455576370644927 0.44173526874510649 0.1036784811876722 0.1036784811876722 0.15326384175568897 0.38315960438922125 0.15079454352962784
leaf_count=539053 32451 54122 20991 1040161 1860 20 72 667 2572 23 23 34 85 878
internal_value=-0.00283503 -0.0500086 0.0502274 -0.0500086 0.0502274 -0.0500086 -0.0500086 -0.0500086 -0.0500086 0.0502274 0.0502274 0.0502274 0.0502274 -0.0500086
internal_weight=531.277 281.245 250.032 188.66 103.751 92.5846 10.0148 10.0024 9.88786 9.12821 9.02454 8.92086 8.76759 0.59253
internal_count=1693012 1637545 55467 1098472 23016 539073 58311 58239 57572 2025 2002 1979 1945 3450
is_linear=0
shrinkage=0.05


Tree=106
num_leaves=7
num_cat=0
split_feature=5 1 0 3 1 2
split_gain=505.945 5.68434e-14 2.84217e-14 2.84217e-14 2.22045e-16 4.44089e-16
threshold=1.0000000180025095e-35 17.500000000000004 7.5000000000000009 8.6500000000000004 18.500000000000004 6.3500000000000005
decision_type=2 10 10 10 10 10
left_child=1 -1 3 -2 5 -3
right_child=2 4 -4 -5 -6 -7
leaf_value=-0.050008167883951564 0.050216303287566766 -0.050008167883951585 0.050216303287566766 0.050216303287566766 -0.050008167883943071 -0.050008167883940607
leaf_weight=266.49627283142763 45.526047628372908 1.0225507806462686 33.414360534399748 158.94873774424195 0.0065349147189409642 0.0050645589071792721
leaf_count=1631215 10615 6259 7791 37061 40 31
internal_value=-0.00283486 -0.0500082 0.0502163 0.0502163 -0.0500082 -0.0500082
internal_weight=505.42 267.53 237.889 204.475 1.03415 1.02762
internal_count=1693012 1637545 55467 47676 6330 6290
is_linear=0
shrinkage=0.05


Tree=107
num_leaves=8
num_cat=0
split_feature=5 0 0 3 2 3 3
split_gain=481.218 2.84217e-14 2.84217e-14 2.84217e-14 7.10543e-15 8.88178e-16 4.44089e-16
threshold=1.0000000180025095e-35 2.5000000000000004 5.5000000000000009 214.25000000000003 3.2500000000000004 350.85000000000008 282.85000000000008
decision_type=2 8 10 10 8 10 10
left_child=1 4 3 -2 -1 6 -5
right_child=2 -3 -4 5 -6 -7 -8
leaf_value=-0.050007776626447946 0.050205709775756259 -0.050007776626447946 0.050205709775756259 0.050205709775756252 -0.050007776626447946 0.050205709775756203 0.050205709775756224
leaf_weight=40.329171992256306 127.92402498889714 209.97159581648884 93.917044948786497 2.5013533434830602 4.1840031812025691 0.83242427743971337 1.1588651705533264
leaf_count=259508 31350 1351114 23016 613 26923 204 284
internal_value=-0.00283469 -0.0500078 0.0502057 0.0502057 -0.0500078 0.0502057 0.0502057
internal_weight=480.818 254.485 226.334 132.417 44.5132 4.49264 3.66022
internal_count=1693012 1637545 55467 32451 286431 1101 897
is_linear=0
shrinkage=0.05


Tree=108
num_leaves=8
num_cat=0
split_feature=5 0 0 1 1 3 3
split_gain=457.703 2.84217e-14 2.84217e-14 1.42109e-14 7.10543e-15 7.10543e-15 2.22045e-16
threshold=1.0000000180025095e-35 2.5000000000000004 6.5000000000000009 13.500000000000002 17.500000000000004 4.8500000000000005 100.05000000000001
decision_type=2 10 10 10 8 10 10
left_child=1 3 -2 -1 5 -4 -6
right_child=2 -3 4 -5 6 -7 -8
leaf_value=-0.050007392699300927 0.050195634737431861 -0.050007392699300927 0.050195634737431861 -0.050007392699300927 0.050195634737431861 0.050195634737431861 0.050195634737431674
leaf_weight=78.335746486569406 154.564475458581 162.38504978117999 5.8622148027643552 1.3544012283382461 0.71821836987510224 53.928493923973292 0.26399377919733524
leaf_count=529911 39813 1098472 1510 9162 185 13891 68
internal_value=-0.00283454 -0.0500074 0.0501956 -0.0500074 0.0501956 0.0501956 0.0501956
internal_weight=457.413 242.075 215.337 79.6901 60.7729 59.7907 0.982212
internal_count=1693012 1637545 55467 539073 15654 15401 253
is_linear=0
shrinkage=0.05


Tree=109
num_leaves=6
num_cat=0
split_feature=5 0 0 3 3
split_gain=435.338 2.84217e-14 2.84217e-14 1.42109e-14 7.10543e-15
threshold=1.0000000180025095e-35 5.5000000000000009 1.5000000000000002 84.15000000000002 5.1500000000000012
decision_type=2 10 10 8 10
left_child=1 -1 4 -3 -2
right_child=2 3 -4 -5 -6
leaf_value=-0.050007031762975267 0.050186057336244594 -0.050007031762975267 0.050186057336244677 -0.050007031762975267 0.050186057336244677
leaf_weight=147.11789629414852 2.1349056172184673 65.050135557467001 183.87521009752527 18.102644852842786 18.863257763208821
leaf_count=1046213 578 462597 49782 128735 5107
internal_value=-0.00283439 -0.050007 0.0501861 -0.050007 0.0501861
internal_weight=435.144 230.271 204.873 83.1528 20.9982
internal_count=1693012 1637545 55467 591332 5685
is_linear=0
shrinkage=0.05


Tree=110
num_leaves=6
num_cat=0
split_feature=5 2 1 3 3
split_gain=414.068 5.68434e-14 2.84217e-14 1.42109e-14 3.55271e-15
threshold=1.0000000180025095e-35 1.9500000000000002 16.500000000000004 40.550000000000004 19.350000000000005
decision_type=2 8 10 8 10
left_child=1 -1 -2 4 -3
right_child=2 3 -4 -5 -6
leaf_value=-0.050006690548115809 0.050176950704781537 -0.050006690548115795 0.050176950704781537 -0.050006690548115809 -0.050006690548115809
leaf_weight=133.94911838381086 192.95871226117015 10.711279894807378 1.9573484379798163 65.763275114237331 8.6180344051681441
leaf_count=1001397 54910 80077 557 491643 64428
internal_value=-0.00283424 -0.0500067 0.050177 -0.0500067 -0.0500067
internal_weight=413.958 219.042 194.916 85.0926 19.3293
internal_count=1693012 1637545 55467 636148 144505
is_linear=0
shrinkage=0.05


Tree=111
num_leaves=8
num_cat=0
split_feature=5 0 0 2 3 3 3
split_gain=393.84 5.68434e-14 2.84217e-14 1.42109e-14 7.10543e-15 1.73472e-18 8.67362e-19
